{"model.0.weight":[[-0.044,0.046,-0.005,0.039,-0.024,0.012,-0.02,-0.008,-0.011,0.007,0.013,0.037,0.038,-0.02,-0.001,-0.013,0.044,-0.011,-0.001,0.028,-0.021,0.021,-0.028,-0.004,0.019,0.019,-0.013,0.023,-0.033,0.051,-0.035,-0.031,-0.034,0.035,0.001,-0.029,0.034,0.01,0.017,-0.01,-0.039,-0.041,0.028,0.004,-0.03,-0.0,-0.038,0.023,0.05,0.031,0.05,-0.031,0.039,-0.024,-0.034,-0.015,0.048,0.048,0.024,0.041,-0.043,0.014,-0.015,-0.04,0.045,-0.006,-0.032,0.047,0.035,0.039,0.045,-0.052,0.037,-0.054,0.003,0.05,-0.006,-0.046,0.014,0.037,-0.031,-0.047,0.045,0.017,0.018,0.034,0.026,-0.018,-0.026,-0.027,-0.018,-0.032,-0.035,0.037,-0.026,0.03,-0.014,-0.041,-0.009,0.021,-0.001,-0.01,-0.037,0.04,-0.034,-0.043,-0.041,-0.009,0.019,-0.044,-0.009,0.052,0.048,-0.031,0.037,-0.004,0.011,-0.029,0.003,0.043,-0.044,-0.053,0.002,0.016,0.036,0.025,-0.053,0.046,-0.054,0.054,-0.01,0.012,0.035,0.033,0.006,-0.043,0.01,-0.049,0.001,0.041,-0.048,-0.008,0.028,0.032,0.011,-0.054,-0.012,0.044,-0.008,-0.018,-0.012,0.015,-0.049,-0.037,0.045,0.048,0.052,0.036,0.043,0.001,0.028,-0.007,-0.034,0.005,0.033,-0.019,-0.024,-0.007,0.015,0.022,0.027,0.03,-0.032,-0.031,0.019,0.037,-0.04,0.018,0.0,-0.017,0.003,-0.004,0.005,-0.029,-0.042,0.026,-0.042,0.047,-0.012,0.017,-0.033,-0.004,0.017,0.054,0.028,0.026,-0.014,0.022,-0.008,0.025,0.03,0.0,-0.045,-0.052,-0.003,0.024,0.015,0.005,0.047,0.05,0.05,-0.053,-0.046,-0.01,0.051,0.023,0.039,0.051,0.044,0.009,0.031,-0.039,-0.053,0.044,0.039,-0.054,-0.025,0.005,-0.025,-0.045,0.048,-0.014,0.007,0.042,-0.009,-0.012,-0.019,-0.022,-0.049,-0.018,0.049,-0.0,0.006,0.043,-0.024,0.016,0.014,0.043,-0.027,0.022,0.021,0.028,0.026,0.05,-0.029,-0.008,-0.046,-0.031,0.041,0.002,0.008,-0.005,0.029,0.046,0.015,-0.049,0.018,0.0,-0.051,-0.041,-0.013,-0.052,0.046,-0.051,0.006,0.005,-0.028,0.035,0.052,0.031,0.037,-0.03,-0.012,0.038,-0.005,-0.026,0.005,0.019,0.05,0.04,0.017,0.043,-0.018,0.014,-0.016,-0.043,-0.049,-0.018,0.001,-0.046,-0.051,-0.011,0.054,0.04,-0.038,0.038,0.041,-0.016,-0.006,-0.046,0.013,0.008,-0.035,-0.006,-0.046,-0.037,-0.053,0.041,-0.009,-0.049,-0.024,0.004,0.042,0.019,0.025,-0.006,0.055,0.034,-0.037,-0.028,0.021,-0.037,0.023,0.044,-0.003,0.014,0.02,-0.032,-0.035,0.009,-0.051,0.106],[-0.041,-0.045,-0.022,0.037,0.008,0.039,0.038,-0.053,0.017,0.021,0.038,-0.003,0.003,-0.007,0.044,0.026,0.047,-0.049,-0.014,0.008,-0.021,0.025,0.028,0.05,-0.03,0.05,-0.019,-0.027,0.039,0.018,0.028,-0.042,-0.047,-0.026,-0.003,0.037,-0.029,-0.049,-0.035,-0.015,-0.021,-0.023,0.026,0.009,0.046,-0.033,0.012,-0.018,0.009,-0.034,-0.003,0.012,0.004,0.002,-0.03,0.051,-0.025,-0.007,-0.001,0.033,0.05,-0.047,-0.021,0.045,-0.016,-0.006,-0.053,0.029,0.031,0.048,0.009,0.004,-0.018,0.021,0.051,0.008,0.035,0.049,-0.047,0.033,-0.018,0.034,-0.013,0.047,-0.002,0.03,0.008,0.047,0.043,-0.033,-0.031,0.005,-0.027,0.052,-0.044,0.001,-0.017,0.035,0.05,0.023,0.013,-0.038,0.049,-0.053,0.01,0.0,0.031,0.015,0.02,-0.025,-0.042,0.004,-0.029,-0.046,0.047,0.012,0.022,-0.042,-0.035,-0.036,-0.027,0.039,-0.024,-0.049,0.027,-0.053,-0.03,0.005,0.05,0.045,-0.022,-0.017,0.046,-0.038,0.054,0.039,0.046,0.047,0.014,0.013,0.014,-0.048,0.023,-0.026,-0.051,-0.041,0.045,0.038,-0.033,-0.043,-0.006,-0.044,-0.005,-0.033,-0.004,0.035,-0.016,-0.052,0.054,0.032,0.027,-0.02,0.024,-0.05,0.047,0.03,-0.003,-0.041,0.002,0.008,0.006,0.006,0.045,-0.032,-0.03,-0.048,0.036,0.01,-0.011,0.035,-0.039,-0.029,0.028,0.015,-0.001,0.028,0.005,0.051,-0.017,-0.003,0.043,-0.025,0.023,-0.016,-0.038,0.054,-0.015,0.03,-0.025,-0.046,-0.051,-0.043,0.033,-0.04,0.003,-0.011,-0.026,-0.005,0.015,-0.023,0.043,-0.047,-0.002,0.04,0.005,0.036,0.009,-0.003,-0.046,0.022,-0.009,0.049,0.036,-0.004,0.005,0.016,-0.042,-0.005,0.034,-0.009,-0.005,0.01,0.015,0.02,-0.049,-0.012,0.043,0.039,0.031,-0.033,0.015,0.034,-0.023,-0.03,-0.039,-0.036,-0.026,0.012,0.051,0.02,-0.043,-0.032,0.015,-0.04,-0.044,0.008,-0.031,0.026,0.018,-0.047,-0.021,-0.045,0.039,0.004,0.025,0.035,-0.045,0.031,0.036,-0.052,-0.002,0.043,-0.027,0.039,0.019,0.016,0.029,0.047,0.005,-0.016,0.046,-0.016,-0.054,-0.04,0.036,0.048,-0.051,-0.034,-0.052,-0.05,0.049,0.039,0.002,-0.033,-0.0,0.035,-0.035,-0.003,0.02,-0.033,0.035,0.003,0.016,-0.035,0.001,0.001,-0.03,-0.027,-0.049,-0.049,-0.02,0.049,-0.049,-0.01,-0.03,0.047,-0.045,-0.042,0.027,0.018,0.027,-0.035,0.048,-0.015,0.05,-0.013,0.073,-0.05,0.022,-0.049,0.05,0.002,-0.032,0.031,0.053,-0.038,0.043,0.02,-0.029,0.006,0.035,0.016],[0.016,-0.034,-0.05,-0.01,0.054,0.029,-0.025,-0.002,-0.021,0.015,-0.033,-0.036,-0.018,0.049,-0.026,-0.044,-0.024,-0.048,-0.053,-0.036,-0.013,-0.046,0.033,0.028,0.05,0.029,-0.004,-0.037,-0.047,-0.005,0.003,0.025,0.015,-0.049,-0.017,-0.035,-0.044,0.037,-0.023,0.031,-0.034,0.013,-0.015,0.031,0.028,-0.045,-0.015,-0.028,-0.035,-0.026,0.007,-0.024,0.045,-0.002,-0.052,0.008,0.05,-0.05,-0.008,0.041,-0.047,-0.05,0.036,0.005,-0.012,-0.004,0.022,-0.011,-0.045,0.051,-0.037,0.037,-0.006,0.003,-0.038,-0.029,-0.024,0.025,0.047,0.045,0.047,0.041,0.011,0.008,0.052,0.036,0.051,0.017,-0.017,0.042,-0.01,-0.037,0.014,0.019,0.045,-0.017,-0.043,0.04,0.011,-0.039,-0.03,0.034,-0.016,0.031,0.054,0.044,0.012,-0.0,0.032,0.039,0.043,-0.048,0.023,-0.002,0.01,-0.023,-0.008,0.044,0.047,-0.006,-0.013,-0.017,-0.037,0.016,0.001,-0.013,-0.025,-0.005,-0.005,0.006,0.05,-0.011,0.028,0.051,-0.005,0.006,0.034,-0.038,-0.012,0.028,-0.022,0.003,-0.032,-0.036,-0.004,-0.038,0.045,0.007,0.051,0.045,-0.009,-0.026,0.023,0.01,0.012,0.048,0.023,-0.013,-0.037,-0.052,-0.017,-0.029,0.037,-0.02,-0.031,0.039,-0.008,-0.044,0.008,0.021,0.034,-0.05,0.008,0.026,-0.041,0.025,-0.015,0.041,0.04,-0.036,0.052,-0.044,-0.005,-0.01,0.004,-0.002,0.01,-0.033,-0.002,-0.0,0.04,-0.033,0.015,-0.036,0.01,-0.001,0.028,-0.007,-0.038,-0.001,-0.003,0.035,-0.018,0.054,-0.037,0.047,-0.001,0.014,-0.02,-0.053,0.048,-0.005,0.018,-0.003,0.038,0.04,0.044,0.043,0.031,0.039,0.034,0.045,-0.048,-0.045,-0.025,-0.007,-0.029,-0.031,-0.034,-0.014,-0.02,-0.037,-0.015,0.023,0.046,-0.001,0.013,0.023,-0.023,-0.041,0.054,0.052,-0.053,-0.005,0.049,-0.024,-0.036,-0.036,0.048,-0.003,-0.031,0.044,-0.021,-0.051,0.013,-0.047,0.033,-0.008,0.045,-0.006,-0.002,0.053,-0.025,0.053,-0.007,-0.02,0.024,-0.04,0.003,0.038,-0.013,0.002,0.023,0.014,0.024,0.026,-0.048,0.016,0.003,-0.033,-0.05,-0.052,-0.053,-0.026,0.016,-0.008,-0.04,0.001,-0.003,0.026,-0.046,-0.038,0.006,-0.002,0.051,-0.011,-0.019,-0.014,0.024,0.039,0.041,-0.004,0.016,0.035,0.033,-0.006,0.005,-0.032,0.015,0.022,-0.03,-0.019,0.018,0.023,0.044,0.013,-0.031,0.0,0.037,-0.036,0.021,0.002,0.03,0.039,0.08,0.085,0.019,-0.011,-0.038,-0.009,-0.024,0.045,-0.045,-0.01,-0.012,-0.02,-0.036,-0.034,-0.009,-0.044,0.045,0.033],[0.046,0.034,-0.04,0.024,-0.013,-0.021,-0.005,0.04,0.054,-0.036,0.019,0.045,-0.046,0.014,-0.007,0.013,0.006,-0.022,-0.018,-0.002,0.009,-0.031,-0.021,0.005,-0.043,-0.023,-0.001,-0.044,0.05,0.01,-0.023,-0.018,0.049,-0.025,0.005,-0.009,0.028,0.02,-0.004,-0.05,0.043,-0.007,-0.005,0.014,0.022,0.001,0.011,-0.005,0.006,0.041,-0.051,-0.049,-0.022,-0.032,0.015,0.013,0.024,0.022,0.028,-0.018,0.051,-0.027,-0.019,-0.041,-0.014,-0.015,-0.013,-0.041,-0.009,0.035,-0.028,-0.023,0.044,0.029,-0.034,-0.031,-0.023,-0.013,0.005,0.035,0.029,-0.053,-0.027,0.012,-0.012,-0.028,-0.041,-0.04,0.032,0.018,-0.027,0.03,0.005,0.052,0.042,0.048,-0.003,-0.054,-0.001,0.01,0.05,-0.046,0.041,-0.048,0.028,0.051,0.053,-0.001,0.025,-0.021,0.002,-0.007,0.007,0.003,-0.01,0.013,-0.002,0.043,-0.009,0.005,0.033,0.047,0.007,-0.028,0.053,0.009,-0.036,-0.004,-0.048,0.002,0.005,0.02,-0.021,-0.012,0.035,-0.033,-0.03,0.033,-0.037,0.022,0.04,-0.045,0.028,-0.017,0.027,-0.008,0.034,0.036,0.035,-0.028,-0.019,-0.054,-0.039,0.041,-0.007,0.035,-0.001,0.012,-0.039,0.012,-0.005,-0.026,-0.001,0.041,-0.051,0.013,-0.039,0.038,-0.049,-0.021,0.034,0.041,-0.013,0.051,-0.02,-0.021,-0.045,0.053,0.017,0.035,-0.015,-0.004,-0.039,0.053,0.016,-0.03,0.012,0.04,-0.009,0.025,0.04,-0.003,0.023,0.047,-0.041,-0.032,0.052,-0.011,0.03,0.039,0.044,0.002,-0.032,-0.017,0.043,0.023,0.02,0.011,0.006,0.046,-0.017,-0.017,0.001,-0.009,0.004,-0.039,-0.03,0.01,0.046,-0.015,0.003,-0.011,-0.002,-0.008,-0.043,-0.013,0.045,0.021,0.033,0.012,-0.025,-0.005,0.054,0.004,-0.047,0.008,0.037,-0.045,0.017,0.023,-0.047,0.041,-0.045,-0.005,0.045,-0.043,0.043,0.042,-0.033,-0.05,0.031,-0.023,0.006,0.006,0.021,0.014,0.006,0.014,0.053,-0.037,-0.022,0.006,-0.038,0.043,0.015,0.043,0.047,0.025,0.012,0.037,0.04,0.031,0.006,-0.02,0.025,0.043,-0.049,-0.05,-0.024,-0.015,0.014,-0.0,0.015,0.001,0.001,0.026,-0.05,0.034,-0.051,0.045,-0.025,-0.034,-0.045,0.053,0.043,0.017,-0.051,0.024,-0.032,-0.035,-0.015,-0.015,0.036,0.045,-0.028,-0.019,0.014,0.035,-0.022,0.043,-0.045,-0.044,-0.042,-0.017,0.033,-0.014,-0.036,-0.045,-0.013,0.037,-0.003,-0.047,-0.027,0.005,0.049,0.035,-0.048,-0.008,0.002,-0.013,0.045,-0.019,0.029,0.018,0.022,0.004,0.043,0.008,0.015,-0.005,-0.035,0.093],[-0.009,-0.027,-0.032,0.008,-0.02,0.007,-0.038,0.044,-0.01,0.042,-0.037,0.034,-0.037,-0.01,-0.053,0.015,-0.03,-0.001,0.039,-0.046,0.037,-0.002,0.017,0.041,-0.043,0.008,0.043,0.017,0.049,-0.033,0.026,-0.027,-0.016,0.033,-0.039,0.02,-0.054,-0.024,0.026,-0.024,-0.05,-0.007,0.043,0.009,0.004,-0.019,0.006,0.014,-0.023,-0.052,0.008,0.024,0.013,-0.021,0.035,-0.01,-0.001,0.04,0.002,0.047,-0.022,-0.001,-0.047,0.051,-0.007,0.016,-0.007,0.029,0.004,-0.024,0.052,-0.016,-0.042,0.021,0.037,0.051,0.019,0.023,-0.036,-0.034,-0.013,0.0,0.045,-0.035,0.039,-0.026,0.014,-0.011,-0.011,-0.022,-0.02,-0.047,0.048,-0.025,-0.015,-0.037,-0.009,0.004,-0.025,0.014,0.019,0.0,-0.016,0.036,-0.009,-0.05,0.044,0.004,0.005,-0.051,-0.033,0.036,-0.019,0.011,0.009,-0.03,0.041,0.007,-0.027,-0.032,-0.025,0.045,0.031,-0.013,-0.028,-0.034,-0.005,0.033,-0.012,-0.034,0.038,0.035,-0.032,0.023,-0.004,-0.006,-0.046,0.008,0.032,-0.015,0.02,0.045,0.021,-0.006,-0.006,-0.015,-0.022,0.037,0.003,-0.007,0.004,0.004,0.046,0.032,0.023,0.027,0.0,-0.033,0.006,0.015,0.005,-0.038,-0.013,0.039,-0.024,-0.01,-0.011,-0.041,-0.05,-0.013,-0.001,-0.009,-0.035,-0.012,-0.02,0.046,-0.04,-0.0,-0.001,-0.033,-0.031,-0.016,-0.041,0.001,0.021,-0.029,0.046,0.038,-0.009,-0.031,0.015,-0.02,-0.016,0.033,-0.026,-0.028,0.048,-0.017,-0.008,0.0,0.022,-0.014,-0.051,-0.032,-0.047,0.019,-0.043,-0.026,0.005,-0.051,-0.022,0.046,0.042,-0.002,0.044,0.036,0.032,0.02,0.045,0.051,-0.015,-0.034,0.027,0.0,-0.005,-0.025,0.017,0.032,-0.034,-0.005,0.026,-0.015,0.031,-0.04,-0.048,-0.017,0.031,0.023,0.034,0.0,0.04,-0.054,-0.047,0.044,0.046,-0.035,-0.037,-0.016,-0.027,-0.002,0.022,-0.038,-0.042,-0.04,0.035,0.031,-0.016,-0.001,-0.006,0.018,-0.034,-0.015,0.018,0.035,0.022,-0.012,0.051,0.016,0.002,-0.047,0.053,0.002,-0.029,-0.005,-0.02,-0.004,0.01,0.013,0.028,0.024,0.016,-0.003,-0.044,0.053,0.038,-0.048,0.033,-0.03,0.051,0.029,0.03,0.053,0.038,0.04,0.017,0.036,0.007,-0.034,-0.022,-0.033,-0.017,-0.011,0.047,-0.015,0.015,0.037,0.028,-0.039,-0.051,0.054,0.005,-0.041,0.037,-0.035,0.051,0.004,0.012,-0.029,0.022,0.033,0.041,0.04,-0.053,-0.051,0.021,0.076,0.029,0.002,0.009,-0.05,0.022,0.021,-0.006,0.048,0.014,-0.053,0.009,-0.048,-0.027,0.022,-0.051,0.108],[-0.021,0.001,0.004,0.049,-0.02,-0.037,0.034,0.003,-0.013,-0.002,-0.014,0.049,-0.026,-0.012,0.029,0.001,-0.025,-0.053,0.012,0.051,0.017,0.046,-0.008,-0.018,0.01,0.047,-0.006,0.035,0.014,0.013,0.039,0.009,0.039,-0.015,0.038,-0.035,0.05,-0.045,-0.032,0.044,0.027,-0.039,-0.001,0.004,0.032,-0.045,-0.029,-0.05,0.013,-0.005,-0.033,0.049,-0.011,0.035,0.042,0.007,-0.008,-0.031,-0.026,0.003,-0.022,0.019,0.051,-0.028,0.013,0.019,0.027,0.019,-0.039,0.008,-0.006,0.032,-0.046,-0.054,-0.032,0.015,0.023,0.045,0.031,-0.007,-0.026,0.007,-0.05,0.044,-0.042,0.011,0.046,-0.029,0.044,0.008,0.035,0.014,0.024,0.022,0.027,0.049,-0.045,-0.02,0.014,-0.042,0.002,-0.006,-0.042,0.037,-0.001,-0.041,-0.008,0.012,0.042,0.042,-0.051,0.017,-0.052,0.013,-0.001,-0.008,-0.017,0.029,-0.013,0.044,-0.02,-0.038,0.018,0.006,0.038,0.027,-0.022,0.014,0.043,0.012,-0.046,-0.049,-0.036,-0.016,0.029,-0.036,-0.049,-0.024,-0.027,-0.009,0.037,-0.014,0.004,0.018,0.032,0.001,0.002,-0.05,0.022,0.034,0.046,0.007,0.039,-0.015,0.02,0.016,0.031,-0.033,0.028,-0.034,-0.025,0.047,0.007,0.044,-0.016,0.009,0.023,0.051,-0.046,0.024,-0.043,0.046,0.001,0.005,0.016,-0.028,0.031,0.044,-0.021,0.031,0.052,0.04,-0.02,-0.043,0.036,-0.005,-0.002,0.036,-0.024,-0.008,-0.004,-0.025,0.013,-0.04,0.038,0.014,0.005,0.034,-0.014,0.05,0.054,-0.006,-0.025,0.05,-0.033,0.039,0.015,0.047,-0.041,-0.008,0.013,0.042,-0.021,-0.05,-0.007,0.051,0.043,-0.051,-0.014,-0.021,0.01,-0.014,0.035,0.011,-0.03,-0.022,0.039,0.044,0.011,-0.022,-0.006,0.024,-0.007,-0.013,0.008,-0.025,-0.044,0.006,0.008,0.04,-0.041,0.013,-0.024,0.01,0.04,0.053,-0.051,0.01,-0.047,-0.048,0.034,-0.042,0.005,-0.016,-0.021,-0.025,-0.05,0.045,-0.02,0.039,-0.045,0.013,0.013,-0.033,-0.014,-0.014,-0.001,0.049,-0.001,-0.04,0.028,0.027,0.044,0.004,-0.047,0.046,0.001,0.039,-0.024,-0.018,0.021,-0.006,0.018,-0.03,-0.048,-0.009,-0.019,0.047,-0.021,0.014,-0.027,0.005,0.017,-0.027,-0.032,-0.042,-0.033,0.001,-0.053,0.007,0.03,-0.048,0.02,-0.021,0.042,-0.045,0.002,-0.008,0.009,-0.031,-0.001,-0.037,-0.041,-0.04,0.008,0.035,-0.009,0.032,0.013,0.033,-0.05,-0.045,0.041,0.029,0.022,0.074,0.069,0.03,0.038,-0.002,-0.017,0.02,-0.045,0.017,-0.053,0.021,0.028,-0.044,-0.033,0.029,-0.048,0.1],[-0.012,-0.052,0.043,-0.024,-0.015,0.01,0.028,0.05,-0.006,-0.033,-0.008,-0.047,0.036,-0.023,0.01,-0.039,-0.005,0.024,0.019,-0.014,0.039,0.03,-0.011,0.006,-0.018,-0.04,-0.018,0.048,-0.029,-0.046,-0.026,0.017,-0.011,0.032,-0.012,-0.017,0.028,0.035,0.036,-0.053,0.036,0.053,0.016,-0.019,0.001,-0.021,0.01,0.011,-0.044,-0.031,0.042,-0.052,0.038,-0.041,-0.02,0.013,0.001,-0.031,-0.024,-0.02,-0.053,-0.035,-0.047,-0.019,-0.002,-0.018,0.007,-0.045,-0.03,-0.02,-0.05,-0.044,0.01,-0.053,-0.022,0.051,-0.018,0.004,0.039,0.052,0.006,-0.014,0.045,-0.035,0.013,-0.019,0.035,-0.042,-0.049,-0.006,-0.04,0.036,0.053,-0.052,0.046,0.048,0.05,0.011,-0.004,-0.037,0.018,0.048,0.007,0.036,-0.029,0.018,-0.05,-0.024,-0.042,-0.025,-0.009,-0.052,-0.051,0.01,-0.054,-0.034,0.001,0.048,-0.0,0.035,0.01,-0.017,-0.023,-0.003,-0.041,0.022,0.047,0.007,0.005,-0.044,0.044,-0.045,-0.035,0.043,0.017,0.007,-0.046,-0.004,0.005,0.024,0.027,-0.033,0.029,0.033,0.029,-0.039,-0.02,0.038,-0.007,-0.048,-0.042,-0.022,-0.004,-0.024,-0.022,-0.015,-0.03,-0.033,0.05,0.035,0.048,0.018,0.018,-0.0,-0.001,0.046,-0.052,0.008,-0.036,0.049,-0.032,-0.009,0.001,-0.049,-0.019,0.035,0.051,-0.034,0.028,-0.029,-0.001,-0.045,0.009,0.017,0.027,-0.043,-0.045,-0.054,0.02,0.035,-0.025,-0.022,0.026,-0.018,0.035,-0.011,0.036,0.052,0.038,-0.038,-0.013,0.012,0.041,0.042,0.039,0.033,0.008,-0.015,0.052,0.045,0.051,0.015,-0.047,-0.037,0.007,0.023,-0.033,-0.049,-0.032,-0.007,0.017,0.054,0.01,-0.032,0.01,-0.032,0.046,0.012,-0.041,-0.026,-0.037,0.011,-0.038,-0.049,0.047,-0.015,0.036,-0.009,-0.028,0.018,-0.018,0.023,-0.013,-0.029,-0.022,0.033,0.039,-0.045,0.011,-0.013,-0.031,0.003,-0.053,0.002,0.02,-0.022,0.043,0.014,-0.011,-0.044,-0.001,0.03,-0.011,-0.012,-0.044,0.007,-0.037,0.019,-0.031,0.015,-0.032,-0.011,0.008,0.002,-0.026,0.027,0.046,0.05,-0.018,0.017,0.015,0.031,-0.053,0.051,0.024,0.048,-0.002,-0.017,-0.027,0.013,0.006,-0.014,-0.027,0.043,-0.008,0.05,-0.023,0.003,0.051,-0.027,-0.002,0.038,-0.021,0.005,-0.049,-0.026,0.054,0.008,-0.019,-0.032,-0.032,-0.05,0.017,-0.027,-0.04,0.002,-0.033,0.054,-0.045,0.027,0.032,0.034,-0.007,0.028,0.068,0.07,0.071,-0.007,0.022,0.032,0.004,-0.011,0.048,0.053,0.041,-0.046,0.032,-0.024,0.025,0.009,0.051,0.08],[-0.019,-0.013,-0.017,0.031,0.037,0.015,0.016,0.042,-0.053,-0.035,-0.018,0.05,-0.022,-0.053,-0.04,0.041,0.052,0.012,-0.01,0.05,0.039,0.019,0.033,0.04,0.04,0.047,0.028,-0.03,-0.05,-0.031,0.006,-0.005,-0.038,0.014,-0.024,-0.027,-0.034,-0.043,-0.052,-0.031,0.009,-0.052,0.008,-0.014,0.038,0.023,-0.032,0.044,0.001,-0.037,-0.025,0.043,0.018,0.025,0.047,0.047,0.001,0.039,0.037,-0.044,-0.039,0.031,0.052,0.054,0.034,-0.03,-0.018,-0.03,0.043,-0.041,0.005,0.015,0.038,0.02,-0.052,-0.001,-0.048,-0.049,-0.033,0.05,-0.003,0.028,-0.0,0.028,-0.041,0.031,-0.011,0.019,0.023,-0.041,0.014,0.042,0.022,-0.013,0.023,0.03,-0.029,0.008,0.038,0.037,0.001,-0.031,0.042,0.004,-0.007,-0.007,-0.046,-0.046,-0.024,0.017,-0.034,0.024,0.049,0.05,-0.048,-0.034,-0.014,-0.045,0.041,-0.006,0.015,0.027,-0.0,-0.041,0.031,0.052,0.02,0.048,0.035,0.051,-0.009,-0.019,0.027,-0.025,-0.035,-0.051,0.031,0.023,-0.017,0.025,0.007,-0.047,-0.013,0.053,-0.054,-0.007,0.049,-0.016,-0.014,0.051,-0.037,-0.029,0.001,-0.05,0.025,-0.051,0.024,0.047,0.031,0.015,0.018,-0.049,-0.028,0.014,0.038,-0.049,0.041,0.046,0.004,-0.039,-0.041,0.015,0.003,0.016,-0.05,0.025,0.032,0.025,-0.005,-0.033,-0.02,0.005,0.051,0.047,-0.051,-0.035,-0.046,0.033,0.008,0.037,0.039,-0.043,-0.015,-0.007,-0.017,-0.031,0.002,0.02,0.032,0.044,-0.032,-0.036,-0.037,0.054,-0.042,-0.008,-0.009,-0.035,0.023,-0.011,-0.019,0.018,-0.032,-0.002,0.006,0.043,-0.031,-0.002,-0.022,0.025,-0.051,-0.043,0.024,-0.012,0.005,-0.026,-0.014,0.011,0.003,0.013,0.038,0.018,-0.003,0.039,-0.045,-0.024,-0.011,-0.006,-0.046,0.031,0.02,0.033,-0.041,-0.024,0.003,-0.048,0.041,0.043,0.025,-0.018,0.009,-0.04,0.053,-0.024,0.02,-0.044,-0.023,0.002,0.007,-0.026,0.051,-0.048,0.04,-0.05,-0.024,0.003,0.048,0.02,-0.048,0.029,0.029,-0.039,0.022,0.01,0.022,-0.032,-0.042,-0.047,-0.025,0.032,-0.016,-0.03,-0.007,0.04,-0.027,0.045,-0.023,-0.009,-0.013,-0.047,0.012,-0.002,-0.044,0.05,0.029,0.012,0.048,-0.049,0.035,0.043,-0.053,0.032,-0.024,-0.03,0.041,0.017,-0.001,-0.015,0.049,-0.017,-0.046,-0.005,-0.018,0.007,-0.02,0.032,-0.041,-0.04,-0.045,0.022,-0.014,0.042,0.046,0.022,0.061,0.036,0.024,0.011,0.024,-0.017,0.028,-0.044,-0.006,-0.041,-0.04,-0.037,0.021,-0.004,-0.016,-0.039,0.015,0.071],[-0.024,-0.046,-0.02,0.003,0.031,-0.047,-0.022,-0.026,0.028,-0.003,-0.011,-0.021,-0.041,-0.004,0.004,-0.042,-0.037,-0.021,0.041,-0.027,-0.051,0.037,-0.02,-0.038,0.037,0.037,0.034,0.017,-0.021,0.017,-0.046,0.041,0.022,0.022,0.03,0.043,0.044,-0.033,-0.037,0.019,0.022,-0.016,-0.04,0.038,-0.003,-0.006,-0.037,0.029,0.047,-0.027,0.001,0.025,0.033,0.04,0.023,-0.044,-0.024,-0.045,0.019,0.019,-0.043,-0.053,-0.031,-0.037,0.01,0.002,-0.047,-0.007,0.041,-0.025,0.001,-0.026,0.03,0.047,-0.045,0.015,0.019,0.007,0.003,-0.044,0.001,0.016,0.045,-0.05,-0.009,-0.034,-0.011,-0.051,0.026,0.039,0.05,0.031,0.007,-0.035,0.002,-0.025,0.042,-0.046,-0.023,-0.05,0.053,0.022,-0.002,-0.052,-0.0,0.044,0.024,0.005,-0.049,0.022,-0.016,0.045,0.008,-0.01,0.014,-0.004,0.01,0.009,-0.043,-0.012,-0.032,-0.043,-0.027,0.045,0.042,-0.042,0.043,0.013,-0.039,-0.053,0.051,-0.024,0.052,0.046,-0.05,-0.024,0.05,0.032,0.02,-0.013,0.042,-0.016,-0.022,0.026,-0.004,-0.054,0.048,0.037,-0.019,-0.042,0.005,0.051,-0.01,-0.017,0.019,0.001,0.028,-0.01,0.047,0.013,0.017,-0.025,-0.052,0.009,-0.044,0.01,-0.046,-0.011,-0.031,-0.003,0.0,-0.02,-0.006,-0.054,0.027,-0.004,0.047,0.006,-0.024,0.022,0.017,-0.026,0.053,-0.01,0.004,0.02,-0.02,0.053,0.054,0.016,-0.049,-0.009,0.043,-0.042,0.053,0.046,0.022,0.024,-0.034,-0.022,-0.014,0.023,0.046,0.004,-0.012,0.015,-0.014,0.046,-0.01,-0.04,0.035,0.002,-0.021,-0.012,0.031,0.028,0.019,0.038,0.026,0.008,0.014,0.029,0.009,0.025,0.05,-0.029,0.011,0.051,0.045,-0.047,-0.019,0.016,-0.026,-0.051,-0.011,-0.053,-0.002,0.047,-0.042,-0.02,0.042,-0.049,0.011,0.028,0.023,0.049,0.005,-0.018,-0.028,0.042,0.019,0.045,0.032,-0.007,0.053,-0.016,-0.017,-0.046,-0.032,0.037,-0.008,0.033,-0.038,0.012,-0.049,0.025,-0.02,0.015,-0.012,-0.02,0.022,-0.048,-0.051,-0.004,0.03,-0.01,0.043,0.003,0.038,-0.023,-0.049,-0.032,0.038,-0.032,0.04,0.031,0.049,0.011,0.004,-0.035,0.01,-0.025,0.016,0.018,-0.027,-0.042,0.006,0.004,0.022,-0.003,-0.052,0.014,0.0,0.046,0.054,0.015,-0.033,-0.033,-0.001,0.047,0.052,-0.052,-0.042,-0.041,0.012,0.023,-0.027,0.04,0.035,-0.045,0.008,0.053,-0.004,0.031,0.04,0.061,0.018,0.016,0.027,0.027,-0.044,-0.015,-0.001,-0.012,0.042,0.035,0.008,-0.039,-0.003,0.052,0.009,0.018],[0.025,0.048,0.049,0.022,-0.049,0.046,-0.048,0.013,-0.007,0.036,0.048,0.027,0.046,-0.051,-0.003,-0.032,0.024,-0.019,-0.001,-0.04,0.007,0.053,0.018,-0.013,0.022,-0.017,0.004,0.0,-0.045,0.012,-0.036,-0.011,0.046,0.042,0.01,-0.031,0.032,-0.015,0.049,-0.029,0.039,-0.004,-0.008,0.004,-0.033,0.011,-0.004,0.0,-0.028,0.051,-0.013,-0.037,0.033,0.024,0.028,-0.03,-0.034,0.048,0.009,-0.02,0.045,0.005,-0.016,-0.053,0.005,-0.027,-0.002,0.033,0.028,0.04,0.031,-0.028,-0.035,-0.02,-0.038,0.005,0.036,-0.002,-0.021,-0.018,-0.022,0.016,0.002,0.018,0.026,-0.017,-0.021,-0.046,0.028,-0.005,-0.02,-0.001,0.052,-0.013,-0.036,0.035,-0.014,0.022,-0.001,0.02,0.001,0.048,-0.028,-0.041,-0.054,0.019,0.032,0.001,-0.047,-0.032,-0.013,-0.027,0.012,0.045,-0.017,0.012,0.049,0.051,0.026,0.016,-0.015,-0.006,0.044,0.004,0.011,0.039,-0.019,0.005,0.03,-0.027,0.033,0.004,-0.014,0.032,-0.017,0.009,0.019,-0.019,0.023,0.027,-0.002,-0.008,0.038,0.047,0.03,-0.025,-0.029,-0.021,0.005,0.013,-0.046,-0.037,0.033,-0.054,-0.042,-0.022,-0.009,0.02,0.032,0.018,0.008,0.043,0.006,0.024,-0.042,-0.046,-0.009,0.025,-0.022,-0.034,0.018,0.034,0.047,0.054,0.054,-0.03,0.032,-0.034,-0.052,-0.037,-0.028,0.011,0.02,-0.023,0.034,0.016,0.045,0.008,0.035,0.017,-0.035,0.042,0.053,0.016,0.037,-0.035,0.027,-0.006,0.054,-0.041,0.013,-0.041,0.045,-0.05,0.012,0.027,-0.039,0.032,-0.03,0.007,-0.011,0.036,0.017,0.052,0.027,0.04,0.047,-0.039,-0.004,-0.048,-0.001,-0.032,-0.004,0.017,0.02,-0.029,-0.016,0.008,0.04,0.03,0.002,0.004,-0.012,0.012,-0.036,0.031,-0.003,0.037,-0.049,0.01,-0.043,-0.029,0.005,-0.039,-0.046,-0.054,-0.029,-0.049,0.004,0.004,-0.01,-0.019,-0.009,0.034,-0.002,0.024,0.037,-0.004,0.044,-0.04,0.051,0.029,0.045,0.033,-0.041,0.025,-0.004,-0.035,-0.008,0.002,0.035,0.001,0.02,0.015,0.036,0.01,-0.033,0.037,0.007,0.034,0.002,-0.043,0.032,0.009,0.046,0.029,0.051,0.046,0.041,0.046,-0.02,0.029,-0.012,0.053,-0.001,0.026,0.025,0.047,-0.012,0.008,-0.011,0.014,0.029,-0.026,0.039,-0.028,-0.005,0.037,-0.017,0.015,-0.05,-0.023,0.054,-0.033,0.009,0.008,-0.009,-0.039,-0.012,-0.039,-0.043,0.03,0.051,-0.026,0.034,0.02,0.072,-0.035,-0.032,-0.013,0.017,0.051,0.03,0.008,-0.016,-0.052,0.052,-0.003,0.032,-0.036,0.017,0.123],[-0.006,-0.014,0.041,-0.048,0.018,-0.035,0.04,-0.035,-0.054,0.019,-0.013,-0.0,0.032,-0.017,-0.039,-0.04,0.051,-0.039,-0.0,-0.01,-0.051,0.021,0.053,-0.044,0.005,-0.034,-0.044,-0.028,-0.044,-0.034,0.02,0.01,-0.027,-0.005,0.027,0.053,0.002,0.022,-0.011,-0.013,-0.04,-0.033,-0.012,0.013,0.049,0.044,0.009,-0.037,0.054,-0.038,-0.031,-0.006,0.037,0.01,0.033,-0.03,-0.021,-0.016,-0.04,0.037,0.013,0.035,-0.013,-0.017,0.025,0.013,0.027,0.017,-0.052,-0.024,0.04,-0.005,0.018,0.053,0.019,0.035,0.03,-0.049,-0.051,0.017,0.04,0.031,0.011,-0.05,0.05,-0.052,0.024,-0.046,0.031,0.013,0.039,0.036,-0.01,0.021,0.05,0.02,0.033,0.028,0.052,0.032,-0.022,0.041,0.002,0.012,-0.018,0.041,-0.023,-0.017,-0.046,0.045,-0.037,0.003,0.037,-0.046,-0.001,0.022,-0.053,0.006,0.048,-0.037,-0.011,-0.018,0.029,0.012,-0.039,0.02,-0.035,0.051,0.05,-0.007,0.054,-0.006,0.048,-0.045,-0.029,0.005,-0.019,0.02,-0.001,-0.036,0.001,-0.043,-0.035,-0.001,0.017,-0.041,0.025,0.035,0.006,-0.002,0.028,-0.046,0.019,0.009,0.042,-0.031,0.054,0.043,0.002,-0.038,-0.024,-0.013,0.035,-0.034,-0.038,0.013,0.025,-0.013,-0.001,0.004,0.023,-0.029,-0.01,-0.035,-0.042,0.023,-0.001,-0.03,0.027,-0.048,0.048,-0.017,-0.006,0.038,-0.034,0.048,-0.032,0.027,0.017,-0.026,0.045,-0.041,0.013,0.045,0.051,0.007,0.011,0.034,-0.043,0.045,-0.037,-0.028,0.008,-0.024,0.026,-0.026,0.046,0.049,0.02,0.015,-0.001,-0.014,-0.046,0.041,0.026,0.019,-0.036,-0.002,-0.049,0.01,-0.013,-0.048,0.011,0.052,-0.0,-0.026,0.054,-0.044,0.038,0.018,0.024,-0.053,-0.017,-0.02,-0.01,0.024,-0.041,0.021,-0.011,0.02,0.006,-0.005,-0.036,0.044,0.003,0.044,0.03,0.052,-0.001,0.029,0.012,0.047,0.045,-0.044,0.016,0.014,-0.003,-0.047,-0.005,-0.049,-0.023,-0.003,0.038,0.027,-0.006,0.01,-0.035,-0.05,-0.04,0.013,0.025,0.033,-0.038,-0.016,0.031,0.02,0.026,-0.025,-0.048,0.029,0.027,0.052,-0.038,0.006,0.009,0.003,0.041,0.018,0.005,-0.051,0.026,-0.052,0.027,0.041,-0.002,-0.028,-0.007,-0.039,-0.053,0.002,-0.033,-0.018,0.042,-0.041,0.014,0.036,-0.011,-0.028,-0.045,-0.019,-0.03,-0.003,0.008,0.035,-0.015,0.024,0.017,0.022,-0.007,0.008,-0.016,0.026,-0.012,0.005,0.064,0.05,0.046,-0.025,-0.05,-0.034,0.007,-0.016,-0.034,-0.028,-0.019,-0.04,0.004,-0.01,0.003,0.036,-0.021,0.056],[0.008,-0.038,-0.052,0.048,-0.033,0.019,-0.024,-0.011,0.005,0.037,-0.017,-0.044,0.052,-0.026,0.037,0.026,0.043,-0.0,-0.008,-0.008,-0.042,-0.006,0.05,0.036,-0.013,-0.031,-0.035,-0.046,0.035,0.02,-0.001,0.025,-0.01,-0.012,-0.015,-0.015,-0.044,0.054,-0.04,0.004,-0.006,0.038,0.043,0.013,-0.047,-0.002,-0.009,0.031,0.025,0.015,0.025,-0.024,-0.01,-0.045,-0.052,0.009,0.009,0.031,-0.001,0.048,0.016,0.018,-0.049,0.016,0.049,-0.046,-0.04,-0.046,-0.021,-0.045,0.021,-0.05,0.044,-0.046,-0.051,0.032,0.001,0.008,0.026,-0.05,-0.039,0.019,0.034,0.006,0.01,-0.031,-0.041,-0.027,0.015,0.02,0.043,0.016,0.011,-0.015,0.042,0.022,0.002,0.021,0.051,0.021,-0.045,0.033,0.005,0.026,-0.016,-0.014,-0.047,-0.023,0.031,-0.014,0.006,-0.051,-0.005,0.008,0.042,-0.025,0.026,0.029,0.012,0.037,0.014,-0.033,0.01,-0.027,0.004,-0.014,-0.015,0.043,-0.044,0.0,-0.021,0.046,-0.03,-0.032,0.05,0.017,0.037,-0.002,-0.016,0.01,-0.009,0.037,-0.054,0.052,0.029,0.021,-0.013,0.033,0.044,0.013,0.05,0.051,0.028,0.021,0.038,0.013,-0.038,-0.002,0.034,0.02,-0.05,-0.032,-0.037,0.023,-0.015,0.031,0.017,-0.043,-0.011,0.007,0.023,0.021,-0.012,-0.013,0.032,-0.004,-0.001,-0.013,-0.001,0.005,0.002,0.017,-0.009,-0.016,0.041,-0.017,0.028,-0.039,-0.037,-0.002,-0.003,0.032,-0.051,0.024,-0.012,0.036,-0.046,-0.036,-0.007,0.029,0.041,0.012,0.039,0.017,0.045,-0.041,-0.019,0.033,0.003,-0.023,0.018,-0.003,0.034,0.02,-0.034,0.021,-0.023,-0.04,0.042,-0.008,-0.054,-0.041,0.04,-0.011,0.044,-0.007,-0.014,0.012,0.036,0.019,0.047,0.0,0.028,-0.022,-0.006,-0.016,0.008,-0.03,0.019,-0.021,0.03,-0.045,-0.044,-0.008,0.049,-0.033,0.045,0.034,-0.042,0.042,-0.003,-0.01,-0.02,-0.029,-0.034,-0.005,0.01,0.036,0.03,-0.045,0.02,0.012,0.019,-0.037,-0.021,0.009,-0.01,0.041,0.009,0.038,0.026,-0.021,-0.043,0.051,-0.015,-0.004,-0.046,-0.047,0.045,0.019,-0.053,-0.047,-0.026,0.009,-0.036,-0.026,0.012,0.033,-0.008,-0.018,0.024,0.036,0.048,-0.04,0.014,0.029,-0.049,-0.008,-0.019,0.047,0.05,0.052,-0.05,0.035,0.023,0.049,0.014,-0.029,-0.053,0.007,-0.034,0.051,-0.008,-0.048,-0.016,0.01,-0.046,0.047,-0.009,0.038,0.045,0.04,0.03,0.054,0.058,0.051,0.017,0.041,-0.028,0.007,-0.012,-0.052,0.026,0.053,0.004,-0.022,0.027,-0.01,-0.015,0.005,0.039,0.089],[-0.053,0.036,-0.047,-0.022,0.034,-0.054,-0.046,0.024,-0.027,-0.018,0.043,0.05,-0.034,0.003,0.028,-0.038,0.029,-0.021,-0.034,0.005,-0.014,-0.046,0.011,0.007,-0.0,-0.044,0.002,0.016,0.039,0.013,-0.014,0.04,-0.015,-0.008,-0.013,-0.046,0.053,0.04,-0.019,0.017,-0.001,-0.014,0.052,-0.032,-0.031,0.018,0.044,0.022,0.048,0.014,0.024,0.05,0.024,-0.011,0.023,-0.024,0.022,0.043,-0.014,-0.002,-0.017,-0.012,-0.004,0.028,0.039,0.012,-0.034,-0.003,-0.043,0.039,0.018,-0.004,0.008,0.024,-0.013,0.017,0.017,0.008,0.036,-0.027,-0.012,0.015,-0.027,0.046,0.041,-0.05,0.015,-0.02,-0.011,-0.024,-0.006,-0.009,-0.04,-0.028,-0.037,-0.05,0.024,-0.003,-0.051,0.048,-0.021,0.021,-0.012,-0.031,-0.017,-0.039,0.054,-0.013,-0.046,0.006,-0.032,-0.017,0.017,0.031,-0.021,0.053,-0.016,-0.003,-0.04,0.007,-0.007,-0.048,0.038,0.036,-0.04,-0.026,-0.045,-0.011,-0.036,0.036,0.007,0.037,0.019,0.007,0.007,-0.01,-0.052,0.011,-0.038,-0.014,-0.018,0.048,0.015,-0.017,0.046,-0.021,-0.011,0.032,0.003,-0.029,0.05,0.018,-0.028,0.026,-0.025,-0.019,0.041,-0.018,0.046,0.016,0.044,0.039,-0.015,-0.004,-0.01,-0.03,-0.036,-0.043,-0.035,-0.018,0.04,-0.054,0.022,0.047,0.02,0.029,-0.018,0.027,-0.018,0.024,-0.041,-0.014,0.009,0.03,-0.029,-0.034,0.004,0.024,0.01,-0.008,-0.019,0.015,0.017,0.038,0.007,-0.002,-0.034,-0.019,0.025,-0.026,-0.007,-0.01,0.031,-0.01,0.016,0.008,-0.03,-0.005,0.017,-0.001,0.022,-0.05,-0.047,0.035,0.047,-0.015,0.019,0.005,-0.014,-0.004,0.001,0.013,0.04,0.048,-0.032,0.008,-0.003,0.035,0.016,-0.031,0.016,-0.008,-0.053,-0.016,0.032,-0.049,0.032,-0.005,-0.025,-0.038,0.001,-0.019,-0.033,0.022,-0.04,0.019,0.053,-0.016,-0.042,-0.038,-0.018,0.003,-0.014,0.042,-0.017,-0.011,-0.052,-0.038,-0.052,-0.024,-0.042,0.031,-0.032,-0.003,0.007,0.015,-0.05,-0.008,-0.047,-0.028,0.026,0.001,0.008,-0.042,-0.047,-0.014,0.033,0.038,-0.006,0.014,-0.019,-0.01,0.039,0.032,-0.015,-0.047,-0.048,0.027,0.036,-0.031,-0.028,0.048,0.033,-0.026,0.019,0.05,0.025,-0.041,0.045,-0.02,0.024,0.029,0.03,-0.007,-0.029,0.005,0.015,-0.038,-0.03,0.008,-0.045,-0.041,0.012,0.006,0.046,0.007,0.031,0.011,0.01,-0.051,0.043,-0.033,0.019,-0.049,-0.039,-0.044,-0.004,-0.032,-0.015,-0.0,0.032,-0.046,-0.036,-0.024,0.049,-0.003,-0.0,-0.039,-0.043,-0.042,-0.024,0.015],[-0.047,-0.002,0.0,-0.05,0.023,0.032,0.039,-0.004,0.029,-0.027,-0.031,0.036,0.02,0.008,-0.038,0.035,-0.034,0.028,0.047,0.02,0.031,0.035,0.046,-0.01,0.029,-0.047,-0.048,0.011,0.006,0.004,-0.049,0.039,-0.01,-0.038,0.048,-0.051,0.049,-0.017,0.029,-0.024,0.026,0.052,0.001,-0.034,0.002,0.013,0.032,0.022,-0.013,-0.01,0.039,-0.002,-0.045,-0.039,-0.033,0.008,-0.027,-0.005,-0.011,0.043,0.011,-0.051,-0.029,0.044,-0.031,-0.03,-0.027,-0.01,0.005,0.025,0.041,0.001,0.005,-0.008,0.054,-0.044,0.002,0.008,0.035,0.018,-0.03,-0.011,0.041,-0.009,-0.007,-0.03,0.001,-0.025,-0.053,-0.005,-0.002,-0.006,-0.018,-0.045,0.005,0.013,0.041,-0.028,0.033,-0.027,0.017,0.049,0.011,-0.019,0.054,0.015,-0.047,-0.042,0.009,-0.047,-0.021,-0.054,-0.004,-0.05,-0.038,0.007,-0.027,-0.005,0.031,0.017,0.021,0.045,0.016,-0.006,0.027,0.021,0.028,-0.003,-0.051,-0.034,0.053,-0.037,0.022,-0.023,0.046,0.005,-0.029,-0.014,-0.045,-0.037,-0.034,0.023,-0.014,-0.04,0.009,0.017,-0.048,0.013,0.044,-0.004,0.036,0.043,0.033,0.029,0.046,0.04,-0.037,-0.038,0.054,-0.048,0.036,-0.009,-0.03,-0.007,-0.014,-0.003,-0.046,0.014,-0.008,0.008,-0.004,-0.041,0.012,0.03,-0.04,0.042,0.044,-0.041,-0.046,-0.002,0.041,-0.033,0.014,0.016,-0.05,-0.032,0.043,0.042,-0.014,0.03,0.037,0.028,0.01,0.001,-0.008,0.052,-0.017,-0.003,-0.051,-0.001,0.005,0.038,-0.027,-0.007,0.021,-0.005,0.023,-0.001,0.034,-0.001,0.046,0.021,0.003,0.048,-0.031,-0.048,0.0,0.041,0.036,-0.017,-0.011,0.025,-0.006,-0.045,-0.001,-0.031,0.044,-0.011,0.031,0.043,0.017,0.02,-0.017,0.045,0.027,-0.0,-0.049,0.053,0.01,0.033,0.05,-0.02,-0.034,0.02,-0.05,0.023,-0.041,-0.049,-0.028,-0.049,0.026,-0.024,-0.033,-0.047,-0.016,0.022,-0.0,0.015,-0.028,0.001,0.012,0.015,-0.009,0.014,0.008,-0.003,0.053,-0.011,-0.022,-0.029,-0.019,0.036,-0.002,0.038,0.0,-0.016,-0.051,0.026,0.046,0.031,0.011,0.039,0.016,-0.033,0.02,-0.043,0.04,-0.006,-0.037,-0.05,-0.001,0.048,0.031,-0.044,0.025,0.029,-0.036,-0.018,0.012,0.009,-0.01,-0.039,-0.032,-0.036,0.051,0.006,0.051,-0.023,0.005,-0.029,-0.017,-0.04,0.011,-0.01,0.05,0.039,0.03,-0.02,0.003,0.034,0.043,-0.027,-0.018,-0.036,-0.025,0.042,-0.048,0.006,-0.018,0.008,0.03,0.026,-0.042,-0.033,0.006,-0.029,0.024,0.047,-0.049,0.008,0.045,0.026],[0.026,-0.014,0.047,0.048,0.053,-0.034,-0.04,0.043,-0.037,-0.019,0.032,-0.047,-0.054,-0.021,-0.01,0.046,0.054,-0.047,0.02,0.028,-0.012,-0.005,0.001,-0.014,0.017,-0.044,-0.024,0.005,0.003,-0.009,-0.0,-0.01,-0.016,-0.01,-0.028,-0.029,-0.038,0.001,0.052,-0.016,-0.031,-0.036,-0.002,0.014,-0.031,-0.01,0.031,-0.005,-0.012,0.017,-0.047,-0.009,0.054,0.029,-0.044,0.021,0.031,0.048,0.042,0.017,-0.04,-0.042,0.051,0.004,0.029,0.023,-0.016,-0.009,-0.052,-0.031,-0.002,0.027,0.034,0.025,-0.041,0.021,-0.019,0.053,0.042,-0.017,-0.034,-0.025,-0.021,0.021,-0.041,-0.015,-0.01,-0.015,-0.051,0.039,-0.024,0.024,0.05,-0.027,-0.047,0.024,-0.039,0.036,-0.039,-0.016,0.012,0.022,0.039,-0.03,-0.024,0.016,0.045,0.05,-0.04,0.041,-0.054,0.02,0.017,0.041,-0.05,0.016,0.008,0.033,-0.028,0.041,-0.052,-0.005,0.016,-0.004,0.021,0.017,-0.053,-0.013,0.005,0.004,0.05,-0.002,-0.034,-0.018,-0.048,0.022,0.002,0.037,0.036,-0.004,0.05,-0.036,0.026,-0.004,0.03,0.044,-0.012,-0.022,0.044,0.031,-0.049,-0.028,0.052,-0.006,0.035,0.027,0.043,-0.038,0.021,-0.005,0.02,-0.048,0.029,0.026,0.051,-0.034,0.048,-0.018,-0.031,0.028,0.012,0.048,0.039,0.007,0.003,-0.015,-0.034,0.027,0.038,0.008,0.047,0.005,-0.036,-0.042,0.035,-0.048,0.02,-0.03,-0.015,0.047,-0.05,-0.005,-0.021,0.032,0.001,0.013,-0.05,-0.039,-0.005,-0.002,0.001,0.028,0.027,-0.054,-0.026,-0.041,0.031,-0.009,0.016,-0.032,0.036,-0.005,-0.016,-0.007,0.048,-0.03,-0.043,-0.011,0.033,-0.034,0.045,0.042,-0.002,0.041,0.029,0.018,0.013,-0.001,-0.043,0.03,0.041,-0.004,0.031,0.006,-0.052,0.013,0.012,-0.02,0.043,-0.037,-0.042,0.026,-0.025,0.001,-0.03,0.024,-0.007,-0.044,0.007,-0.045,0.021,0.011,0.011,0.012,-0.053,0.011,0.05,0.017,-0.045,-0.048,0.005,-0.008,-0.047,-0.039,-0.008,-0.022,0.044,0.021,-0.011,0.04,0.046,0.036,-0.029,0.006,-0.052,0.048,0.03,0.028,-0.016,0.039,-0.002,0.001,-0.032,0.051,-0.046,0.032,-0.04,-0.051,-0.049,-0.016,-0.053,-0.004,0.044,0.037,0.024,0.052,-0.035,-0.019,0.041,-0.009,0.017,0.007,0.04,-0.008,0.023,-0.031,0.004,0.042,0.014,0.004,0.01,-0.015,-0.01,0.032,-0.028,0.042,0.026,0.052,-0.035,-0.034,0.044,0.018,0.043,0.037,0.052,0.077,0.061,0.02,-0.034,-0.046,-0.018,-0.054,-0.024,0.045,0.046,-0.039,0.054,-0.017,-0.02,-0.029,-0.011,0.157],[0.048,0.029,0.013,-0.034,-0.019,0.022,0.023,-0.033,-0.039,0.009,-0.034,-0.005,0.048,-0.041,-0.041,-0.0,-0.032,0.032,0.038,-0.009,0.007,0.017,0.043,-0.046,0.046,-0.013,0.052,-0.05,0.021,0.029,0.012,0.037,-0.023,0.052,-0.01,0.039,-0.052,0.042,-0.045,0.037,0.046,-0.022,-0.028,-0.054,0.002,-0.029,0.03,0.046,-0.006,0.018,-0.052,-0.029,-0.028,-0.007,-0.021,0.033,-0.007,0.045,-0.01,-0.036,-0.036,0.012,-0.016,0.047,0.005,0.043,-0.046,0.027,0.046,-0.007,-0.001,-0.026,-0.033,0.034,-0.011,-0.046,-0.053,0.023,-0.043,0.007,-0.054,-0.035,-0.044,0.028,-0.026,0.029,-0.026,-0.025,0.049,0.004,-0.038,0.006,0.017,-0.039,0.044,0.016,0.04,0.018,-0.006,0.027,-0.037,-0.032,-0.012,0.026,-0.011,-0.039,-0.039,0.046,-0.042,0.037,0.043,-0.045,0.023,-0.026,-0.029,-0.05,-0.0,-0.053,0.047,0.011,0.045,0.022,0.05,0.001,-0.009,0.017,-0.017,0.015,-0.028,-0.012,0.037,0.043,0.044,0.005,-0.019,0.024,-0.022,-0.0,-0.014,0.002,0.02,0.041,-0.04,0.051,0.054,0.036,0.019,-0.027,0.049,-0.038,-0.041,0.031,0.045,-0.023,0.047,0.003,-0.013,0.022,0.028,-0.009,-0.033,-0.016,0.041,0.027,0.037,0.017,-0.042,-0.032,0.013,-0.023,-0.004,-0.039,0.022,0.003,0.0,-0.042,0.021,0.004,-0.041,0.022,-0.011,-0.002,0.046,0.03,-0.009,0.049,0.048,0.034,-0.005,0.001,-0.025,-0.038,0.013,0.017,-0.048,-0.005,0.021,-0.044,-0.003,-0.051,-0.001,0.036,-0.053,-0.039,0.009,-0.016,-0.0,0.039,0.028,0.015,0.013,0.009,-0.013,0.023,0.039,0.029,-0.024,-0.018,0.0,-0.04,-0.049,0.009,0.025,-0.013,0.042,-0.025,-0.033,0.027,0.044,0.015,0.036,0.016,-0.009,0.051,-0.03,0.044,-0.012,-0.044,-0.042,0.011,-0.038,0.034,0.033,0.037,0.007,-0.04,-0.004,-0.033,-0.034,-0.02,0.038,0.012,-0.028,-0.015,0.048,-0.053,-0.028,0.024,0.019,0.053,-0.049,0.051,0.037,0.038,0.013,0.007,-0.014,0.039,0.028,0.003,-0.003,-0.017,0.052,0.038,0.038,0.023,0.008,-0.044,-0.001,-0.036,-0.038,0.012,0.025,0.044,-0.005,-0.052,-0.016,0.01,-0.02,0.035,0.03,-0.012,-0.04,0.035,-0.049,-0.006,0.037,-0.054,-0.046,0.028,0.031,-0.012,-0.022,0.045,-0.053,0.002,-0.011,0.033,0.026,0.027,0.026,0.012,0.02,-0.052,-0.006,-0.021,0.016,-0.002,0.006,0.048,0.034,-0.043,-0.048,-0.026,0.022,0.03,0.056,-0.052,-0.023,-0.022,0.034,-0.019,-0.054,0.04,0.009,-0.018,-0.005,-0.037,0.038,-0.021,0.006,0.048],[0.053,0.005,0.033,0.021,-0.054,0.038,0.042,0.01,-0.041,-0.001,-0.048,-0.013,0.034,-0.042,0.014,-0.017,0.043,-0.002,-0.029,0.026,-0.016,0.038,-0.026,-0.009,0.03,0.048,0.019,-0.048,-0.016,0.011,0.021,-0.03,0.022,-0.001,0.04,0.033,0.042,-0.043,0.023,0.023,0.001,0.024,0.05,-0.036,-0.017,0.019,-0.014,0.052,0.015,0.034,0.021,-0.021,0.024,0.029,0.027,-0.036,0.006,-0.026,-0.022,-0.003,-0.02,-0.037,-0.017,-0.021,-0.008,-0.017,0.015,0.036,-0.049,0.042,0.022,0.023,0.008,-0.007,-0.017,0.02,-0.018,-0.04,-0.016,-0.039,-0.008,-0.04,0.003,-0.026,-0.006,0.042,0.014,-0.015,-0.013,0.021,0.028,0.018,0.043,-0.046,-0.021,0.046,-0.013,0.044,0.036,0.012,-0.002,0.041,-0.016,-0.05,0.016,-0.054,-0.015,0.021,0.009,0.012,-0.043,-0.006,0.016,0.007,0.017,0.037,0.01,0.051,0.046,0.016,-0.003,-0.018,-0.043,-0.05,-0.043,-0.015,-0.03,0.033,-0.042,0.026,-0.046,0.038,0.015,0.045,-0.023,0.052,-0.007,0.017,-0.041,-0.023,0.02,0.042,-0.018,0.014,-0.023,0.021,-0.006,-0.012,0.004,0.003,-0.031,-0.027,-0.004,-0.03,-0.0,0.039,-0.032,-0.034,-0.005,0.021,-0.016,0.03,-0.032,-0.0,-0.033,-0.027,0.051,-0.019,-0.027,-0.026,0.04,-0.048,-0.027,-0.01,0.02,-0.035,-0.008,-0.015,-0.052,-0.051,0.046,-0.039,-0.007,-0.005,0.01,0.038,0.043,-0.0,-0.044,-0.046,-0.045,0.048,0.03,0.028,-0.047,0.035,-0.028,0.027,-0.005,-0.053,-0.018,-0.029,-0.035,-0.034,-0.037,0.003,-0.044,0.031,-0.028,0.053,-0.02,0.03,0.003,0.037,0.048,0.011,-0.051,0.018,0.003,0.046,0.015,0.021,-0.007,0.029,-0.038,0.02,0.038,0.011,-0.03,-0.044,0.02,0.031,-0.015,0.046,-0.008,0.036,-0.051,-0.037,0.045,0.041,0.032,0.035,0.047,0.054,-0.035,-0.012,-0.005,0.003,-0.014,-0.013,0.052,0.01,0.001,0.032,0.047,0.011,0.027,-0.053,0.046,0.003,-0.01,-0.0,-0.049,0.003,0.045,-0.027,0.045,-0.012,-0.017,0.032,-0.009,0.038,0.047,-0.04,-0.01,0.023,0.054,-0.02,0.02,0.038,0.01,-0.039,0.04,0.022,-0.017,-0.049,-0.042,0.03,0.016,0.002,-0.019,-0.038,-0.006,0.025,0.049,0.042,0.02,-0.018,0.034,0.038,-0.005,0.051,0.053,0.017,0.042,0.023,0.007,-0.038,0.048,-0.018,-0.027,-0.002,-0.038,-0.019,-0.005,-0.03,0.035,0.008,0.051,-0.029,-0.049,-0.024,0.014,0.045,0.089,0.08,0.044,-0.014,-0.039,0.047,-0.036,0.028,-0.052,0.013,0.052,-0.027,0.006,0.017,-0.02,0.032,0.029,0.087],[0.021,-0.031,0.014,0.018,0.031,-0.026,0.036,-0.045,0.046,-0.018,-0.035,-0.019,-0.038,-0.044,0.037,0.026,0.042,0.023,-0.041,0.035,-0.033,0.037,0.004,-0.047,0.043,0.041,0.006,0.017,0.041,0.006,-0.008,0.022,0.022,0.035,0.008,-0.03,-0.019,-0.041,-0.002,0.029,0.031,0.034,0.001,0.005,0.009,0.034,0.047,-0.04,0.003,-0.042,0.015,0.024,-0.019,0.012,0.004,-0.015,0.05,-0.013,-0.04,-0.043,-0.006,0.009,-0.01,0.031,0.047,0.017,0.014,0.013,0.005,-0.031,-0.002,-0.04,0.039,-0.013,-0.017,-0.047,-0.008,-0.003,-0.024,-0.012,-0.05,0.026,-0.018,0.011,0.023,0.01,-0.037,0.045,-0.048,-0.041,-0.043,0.001,0.029,0.016,-0.048,-0.053,-0.039,0.019,-0.009,0.023,-0.039,-0.013,-0.031,0.045,0.027,-0.019,-0.017,-0.04,0.018,-0.026,-0.051,0.05,-0.012,0.041,0.018,0.014,0.019,0.036,-0.029,-0.019,0.005,0.027,-0.025,0.047,-0.036,-0.024,0.004,-0.006,-0.037,0.032,-0.042,-0.013,0.034,-0.052,0.015,-0.044,0.038,-0.021,-0.039,0.024,-0.001,-0.05,0.01,0.033,0.031,-0.001,0.044,0.025,-0.01,0.015,-0.041,-0.002,-0.02,0.01,0.042,-0.027,0.005,-0.053,-0.016,-0.043,0.023,0.02,-0.002,-0.053,-0.032,-0.03,0.038,-0.042,-0.017,0.002,-0.015,-0.012,0.006,0.048,0.046,0.033,0.05,0.017,0.025,-0.031,-0.017,-0.051,0.011,0.012,0.042,-0.027,-0.01,0.02,0.041,0.023,0.043,0.014,0.033,-0.047,-0.014,0.054,0.023,0.043,0.009,-0.039,0.043,-0.038,0.045,0.027,-0.015,0.013,-0.042,0.025,-0.024,0.008,-0.043,-0.042,0.016,0.046,-0.049,0.025,-0.013,0.02,0.049,0.036,-0.024,0.032,0.037,-0.015,-0.049,0.019,-0.006,0.03,0.013,-0.041,-0.036,0.037,0.029,0.002,0.046,0.01,-0.001,0.032,0.01,-0.002,-0.017,-0.007,-0.043,-0.026,0.003,-0.01,0.051,0.001,-0.05,0.016,0.028,-0.001,0.025,0.009,-0.021,-0.047,-0.016,0.002,-0.034,0.007,0.043,0.032,0.02,0.001,0.001,-0.01,-0.026,0.035,-0.021,0.031,-0.014,-0.051,-0.045,-0.023,0.01,0.019,0.033,0.033,0.035,-0.005,-0.025,0.007,0.016,0.037,-0.042,-0.011,-0.023,0.047,-0.042,-0.033,0.054,0.015,-0.052,-0.038,0.004,-0.034,-0.046,0.02,-0.033,-0.051,-0.03,-0.035,0.046,-0.026,0.001,0.027,-0.047,0.013,0.025,-0.021,-0.026,0.041,-0.003,0.043,-0.017,-0.026,-0.053,-0.039,-0.016,0.042,-0.05,0.004,-0.02,0.023,0.059,0.06,0.059,-0.013,-0.025,0.052,-0.034,-0.052,-0.004,0.018,0.003,0.007,-0.031,0.033,0.049,0.032,0.015,0.078],[-0.008,0.039,0.035,0.007,0.03,-0.039,-0.053,0.037,-0.019,-0.026,-0.001,-0.021,0.011,0.026,-0.04,0.031,0.02,-0.006,-0.054,-0.051,0.017,0.021,-0.049,0.049,0.024,-0.012,0.019,-0.008,-0.044,0.02,0.031,-0.04,-0.001,0.032,0.004,-0.031,0.011,-0.048,-0.031,0.002,0.037,-0.025,-0.046,0.043,-0.047,-0.023,0.05,-0.042,0.05,0.038,0.016,-0.05,0.01,0.005,-0.04,0.039,0.013,-0.048,0.009,-0.002,-0.024,-0.047,-0.044,0.03,-0.011,-0.042,-0.03,-0.01,-0.039,0.047,-0.041,-0.039,0.014,-0.032,-0.052,-0.044,-0.024,-0.029,0.026,-0.051,0.03,0.052,0.026,0.024,-0.03,-0.002,0.052,-0.028,0.005,-0.021,0.003,0.024,-0.028,0.025,0.038,-0.048,-0.046,0.048,0.01,0.034,0.043,0.032,-0.049,0.005,-0.022,0.054,0.028,-0.015,0.029,0.048,-0.021,-0.035,-0.047,0.041,0.047,0.04,0.043,0.019,-0.044,0.001,0.013,-0.048,0.013,0.026,0.02,-0.005,0.026,0.026,0.017,0.01,-0.022,-0.013,-0.042,-0.003,-0.004,-0.043,-0.039,-0.044,0.039,0.045,0.032,0.032,0.029,0.03,0.041,0.01,0.044,-0.052,0.041,-0.019,-0.048,0.052,-0.051,0.025,0.01,0.035,0.031,0.015,-0.01,0.051,0.036,-0.03,0.042,-0.045,-0.003,0.053,-0.048,0.045,0.015,-0.028,-0.031,0.039,0.019,-0.05,0.035,-0.035,0.044,0.042,0.046,-0.021,-0.013,-0.045,0.042,0.006,-0.031,-0.026,0.003,0.034,0.052,0.041,-0.05,0.039,0.002,0.004,-0.038,0.051,0.0,0.024,-0.033,-0.049,-0.044,-0.052,0.008,-0.041,0.016,-0.008,0.002,0.027,0.047,-0.042,-0.041,-0.01,0.04,-0.008,-0.019,0.022,0.041,0.027,-0.011,-0.005,0.05,0.041,-0.044,-0.041,0.037,-0.041,0.052,-0.004,0.034,0.013,-0.052,-0.004,-0.035,-0.05,-0.026,-0.048,-0.005,0.018,0.054,-0.008,-0.039,0.02,0.014,-0.05,-0.016,0.028,-0.044,-0.045,0.016,0.044,-0.037,-0.048,-0.036,0.047,0.03,-0.054,0.046,0.014,0.046,0.019,0.025,0.023,-0.052,0.01,0.047,-0.004,0.002,0.006,0.037,0.045,0.014,-0.054,0.032,-0.028,0.048,-0.016,0.021,0.037,0.023,0.002,0.006,-0.001,0.017,-0.046,0.052,-0.037,0.03,0.05,0.024,-0.026,-0.01,0.015,-0.028,0.023,-0.018,-0.024,0.037,0.001,0.019,0.047,0.018,0.007,-0.049,-0.007,0.053,-0.039,0.013,-0.015,-0.031,0.054,-0.04,-0.027,0.012,-0.001,0.036,-0.024,-0.025,-0.039,0.002,-0.003,0.045,0.03,0.045,0.04,0.079,0.041,0.026,-0.016,-0.027,-0.042,0.012,-0.003,-0.007,-0.033,0.006,0.044,-0.052,-0.031,0.013,0.042,-0.035,0.138],[-0.042,0.036,0.008,-0.018,0.038,0.02,-0.023,0.053,0.006,-0.02,-0.031,-0.011,0.011,-0.008,-0.04,-0.045,-0.039,0.048,0.032,0.024,-0.01,-0.009,-0.044,0.033,-0.004,0.005,-0.023,0.052,0.032,0.014,0.001,0.028,0.041,0.011,0.034,0.035,-0.005,-0.006,0.032,0.05,-0.01,-0.009,-0.014,-0.017,-0.035,0.037,-0.051,0.0,0.021,0.019,0.051,0.036,-0.042,0.011,-0.009,0.043,-0.052,0.03,0.049,-0.049,-0.029,0.03,0.048,0.02,-0.019,-0.01,-0.043,-0.001,0.013,-0.02,-0.003,0.031,0.018,0.004,0.018,-0.033,0.019,0.042,0.02,-0.053,-0.002,-0.047,-0.041,-0.022,-0.038,-0.035,-0.035,-0.041,0.015,0.005,-0.011,-0.02,0.008,-0.028,0.036,0.041,-0.011,-0.018,0.028,-0.009,-0.007,-0.048,-0.05,0.011,-0.035,0.014,0.047,0.042,0.007,-0.046,0.038,-0.007,-0.011,0.012,0.036,0.05,0.033,0.001,0.05,-0.054,-0.009,-0.015,0.038,0.037,-0.002,-0.003,0.053,0.045,-0.029,0.025,0.001,-0.03,-0.005,-0.017,-0.049,-0.053,-0.013,0.004,-0.029,-0.037,-0.011,0.006,0.029,-0.04,-0.045,-0.033,-0.026,0.042,0.042,0.04,-0.011,0.044,0.005,-0.052,-0.001,-0.007,-0.041,-0.027,0.002,-0.025,-0.018,0.024,-0.014,0.049,0.037,0.002,-0.036,0.014,0.015,0.017,-0.03,0.037,-0.011,0.045,-0.013,0.018,0.034,0.031,0.024,0.02,0.033,0.012,-0.016,-0.04,-0.053,-0.045,-0.05,0.032,-0.034,0.019,-0.034,0.018,0.007,0.013,-0.018,-0.042,0.027,0.047,0.004,0.013,0.014,0.035,-0.022,-0.01,-0.04,-0.022,0.009,-0.054,-0.03,-0.049,0.017,0.032,0.024,0.007,-0.047,0.004,0.016,-0.007,0.015,0.001,-0.009,-0.042,-0.006,0.02,0.029,-0.039,0.031,0.033,-0.035,-0.025,0.039,-0.05,0.004,-0.045,-0.021,-0.008,-0.012,0.05,0.03,-0.005,-0.018,0.011,0.016,0.044,0.012,0.031,-0.032,0.049,-0.051,0.054,0.037,0.008,0.053,0.027,-0.027,-0.045,-0.004,0.005,-0.0,0.039,0.019,-0.053,0.007,0.02,0.022,0.053,0.021,0.042,0.026,-0.024,-0.0,-0.039,-0.014,0.018,-0.039,-0.008,-0.04,0.052,0.047,0.052,0.018,0.016,0.008,-0.009,-0.05,-0.007,-0.007,-0.016,-0.044,0.021,0.02,-0.036,-0.007,0.022,0.027,-0.013,-0.034,-0.051,-0.019,0.001,-0.038,0.032,0.035,-0.04,0.031,-0.009,0.009,0.048,-0.003,-0.042,-0.049,-0.003,0.001,-0.006,-0.0,0.021,-0.053,-0.017,0.015,0.035,-0.017,0.045,-0.021,0.018,0.027,-0.03,-0.032,-0.034,-0.027,0.033,-0.017,0.036,-0.036,0.031,-0.028,0.04,0.038,-0.011,-0.036,0.002,-0.035,-0.038],[-0.018,-0.047,-0.029,0.027,-0.025,0.002,-0.022,0.046,0.05,-0.032,-0.032,0.002,-0.028,-0.006,-0.001,-0.023,0.053,0.029,0.037,-0.047,-0.017,-0.033,-0.02,0.015,0.042,0.011,-0.047,-0.039,-0.029,-0.04,0.025,0.011,-0.035,-0.012,-0.022,-0.001,-0.007,0.029,-0.025,-0.028,-0.047,0.025,0.005,-0.05,-0.023,-0.009,0.048,0.042,0.047,-0.018,0.043,0.033,-0.048,-0.051,-0.053,-0.011,-0.009,0.044,-0.049,-0.032,0.018,0.005,-0.036,0.028,-0.019,-0.036,-0.034,-0.041,-0.047,-0.013,0.003,-0.041,0.021,-0.011,0.009,-0.034,0.052,-0.044,-0.018,-0.021,0.013,-0.04,0.046,0.035,0.049,0.039,0.013,-0.042,0.016,0.001,0.025,0.045,0.035,0.018,-0.031,0.029,0.051,-0.018,-0.026,0.047,-0.054,-0.009,-0.012,0.016,0.051,0.04,0.044,-0.048,0.049,-0.004,0.032,-0.049,0.014,-0.034,0.026,0.053,-0.022,-0.04,-0.01,0.042,-0.044,0.04,-0.01,-0.013,0.017,-0.022,0.007,-0.041,-0.017,-0.002,0.017,-0.05,0.053,0.009,-0.019,-0.042,0.023,0.047,-0.013,0.003,0.011,-0.045,-0.04,0.047,0.042,-0.007,-0.032,-0.033,-0.048,-0.015,-0.032,-0.004,-0.003,-0.016,0.046,-0.026,-0.022,0.047,0.039,0.03,-0.024,-0.034,-0.052,0.04,-0.052,0.039,-0.05,-0.022,-0.004,0.052,-0.001,-0.017,-0.028,-0.005,-0.052,-0.052,-0.027,-0.01,-0.053,0.047,-0.05,-0.005,-0.002,0.029,-0.003,0.023,-0.012,-0.052,-0.011,0.031,0.051,0.041,0.007,0.021,0.034,-0.042,-0.031,-0.021,0.024,-0.02,-0.053,0.043,-0.042,-0.01,0.007,0.035,-0.042,-0.054,-0.014,0.05,0.035,-0.015,0.004,-0.046,-0.005,0.032,0.034,0.051,0.008,-0.039,-0.043,0.026,-0.019,-0.028,0.02,0.05,-0.008,-0.051,-0.048,0.016,-0.027,0.039,-0.018,0.047,0.009,0.038,0.03,0.013,0.041,-0.021,0.027,0.037,0.034,0.003,0.021,-0.052,-0.025,-0.018,-0.025,0.048,-0.053,0.021,0.026,-0.013,-0.034,0.008,0.0,-0.02,-0.032,0.008,-0.047,-0.05,0.053,-0.038,-0.001,-0.018,-0.037,-0.029,0.01,-0.049,-0.047,-0.026,-0.046,-0.002,-0.024,0.036,-0.044,-0.002,0.02,0.017,-0.014,0.03,0.013,-0.006,-0.006,0.027,0.013,0.009,0.05,-0.012,0.041,0.023,-0.016,-0.04,-0.001,-0.013,-0.05,-0.004,-0.053,0.006,-0.047,0.031,-0.02,0.012,0.048,0.017,-0.005,-0.01,0.016,0.015,0.048,0.025,-0.022,-0.044,-0.031,0.054,-0.052,0.008,0.022,-0.046,-0.002,0.041,0.009,0.024,0.083,0.05,-0.001,0.008,0.048,-0.049,0.053,0.016,0.024,-0.031,-0.014,0.019,-0.048,0.035,-0.021,-0.037,0.025,0.121],[0.008,-0.003,-0.025,-0.003,-0.003,-0.007,-0.028,0.016,0.004,0.045,0.022,0.024,0.035,-0.007,0.053,-0.023,-0.001,0.023,0.05,-0.05,0.008,0.021,0.051,0.05,0.031,-0.003,-0.047,-0.004,0.011,-0.002,-0.007,0.011,-0.045,0.018,-0.048,0.052,-0.021,-0.012,0.005,0.041,-0.054,0.042,-0.042,-0.016,-0.012,0.043,0.046,-0.03,-0.051,-0.019,0.036,-0.01,0.006,-0.052,-0.05,-0.038,-0.043,0.017,0.024,0.035,-0.042,-0.009,-0.028,0.042,0.042,-0.034,0.024,0.004,0.038,-0.009,-0.009,0.045,-0.022,-0.051,0.019,-0.046,0.012,-0.049,-0.003,-0.012,-0.03,-0.029,-0.017,0.04,0.028,-0.05,-0.016,-0.024,-0.028,-0.021,0.037,-0.01,-0.052,-0.025,0.032,-0.047,-0.027,0.05,0.049,-0.043,0.009,-0.045,-0.036,-0.028,-0.0,0.026,0.028,-0.03,-0.028,0.03,-0.039,0.001,-0.024,-0.016,0.045,-0.006,0.054,0.017,-0.032,-0.046,-0.019,0.017,0.02,-0.053,0.034,0.033,-0.05,-0.028,-0.013,-0.023,0.021,0.027,0.049,-0.026,0.053,0.017,0.002,0.027,0.026,-0.049,0.022,-0.033,-0.005,0.048,0.008,0.051,0.041,-0.048,-0.025,-0.051,0.029,-0.049,0.01,0.051,-0.016,0.028,0.016,0.008,0.031,-0.02,0.045,-0.014,-0.002,-0.037,-0.007,0.014,0.053,-0.032,-0.042,-0.023,-0.007,0.012,0.018,0.035,-0.029,-0.045,0.025,-0.019,-0.016,0.048,0.027,-0.023,-0.03,-0.046,0.015,-0.017,-0.001,-0.041,-0.011,0.02,-0.027,-0.004,0.024,0.016,0.032,0.013,0.047,0.017,-0.006,-0.026,-0.003,-0.029,0.032,-0.023,-0.043,0.0,0.008,-0.015,-0.038,0.019,0.04,0.049,0.02,0.033,0.016,-0.04,0.003,0.024,-0.007,-0.01,-0.021,-0.048,0.033,0.016,0.048,-0.007,-0.045,-0.05,0.014,-0.008,-0.048,0.03,0.0,-0.014,-0.006,-0.009,-0.005,0.024,0.007,0.037,-0.015,-0.05,0.028,-0.047,-0.027,0.021,0.047,0.051,-0.051,-0.051,-0.026,0.042,0.038,-0.018,-0.047,0.031,0.049,0.05,0.051,-0.04,0.028,-0.024,-0.031,-0.012,-0.039,0.002,-0.047,0.053,-0.047,-0.054,0.027,-0.029,-0.013,-0.028,-0.053,-0.049,0.032,-0.011,0.027,-0.045,0.031,-0.005,0.013,-0.027,-0.021,-0.044,0.033,0.037,-0.001,-0.045,-0.013,0.043,0.021,-0.021,-0.011,-0.044,-0.011,0.004,-0.03,-0.045,0.022,-0.026,-0.052,0.028,0.039,0.015,-0.018,-0.045,0.053,-0.041,0.029,-0.009,0.004,-0.041,-0.051,0.015,-0.034,0.038,-0.041,-0.01,-0.043,-0.038,0.016,-0.044,0.039,0.077,0.009,0.019,0.018,-0.029,0.026,-0.041,0.012,-0.026,-0.028,-0.028,-0.038,-0.004,-0.005,-0.008,0.032,0.036],[-0.051,-0.031,0.053,-0.024,-0.028,0.017,0.015,0.006,-0.023,0.01,0.021,0.015,0.042,-0.005,-0.01,-0.001,0.031,-0.02,-0.052,-0.022,-0.049,-0.036,0.045,-0.05,0.05,0.019,0.05,0.022,0.038,0.049,0.03,-0.034,0.031,-0.041,-0.04,0.028,0.017,-0.05,-0.011,0.045,-0.046,0.035,0.026,-0.004,0.011,-0.034,0.005,0.001,0.024,-0.014,0.026,-0.033,0.047,0.048,-0.034,-0.035,0.002,-0.021,-0.034,-0.043,0.008,0.02,-0.032,0.002,0.024,0.043,0.008,-0.048,0.032,0.036,0.035,-0.046,0.013,0.037,0.009,0.019,0.01,-0.041,-0.009,0.024,-0.044,0.016,0.025,0.007,-0.026,0.045,-0.04,-0.0,-0.037,0.002,0.032,-0.034,0.019,0.007,0.022,-0.027,0.05,-0.0,-0.045,-0.023,0.007,-0.029,0.008,-0.004,0.009,-0.054,0.02,0.01,-0.01,-0.015,-0.024,-0.005,0.03,-0.012,0.038,-0.021,-0.043,0.023,0.046,-0.02,-0.045,-0.046,0.005,-0.04,0.001,0.042,0.039,-0.051,-0.01,-0.043,-0.012,0.003,0.024,0.038,0.045,0.003,0.027,0.031,0.04,-0.034,0.04,-0.035,-0.033,0.017,-0.036,-0.025,0.009,0.043,-0.045,-0.027,0.028,-0.013,0.009,0.048,-0.005,0.051,0.034,0.046,-0.032,0.02,0.004,0.045,-0.008,0.031,0.042,-0.005,0.04,-0.042,0.036,0.022,0.035,0.049,0.014,-0.032,0.015,-0.012,0.005,0.005,0.033,0.001,-0.052,-0.001,-0.015,-0.032,-0.046,-0.029,-0.017,0.019,0.045,-0.003,0.043,0.002,-0.019,-0.047,0.047,-0.035,-0.019,-0.018,-0.04,-0.044,0.04,0.024,-0.028,-0.021,-0.014,0.001,-0.044,0.018,-0.037,-0.03,0.037,-0.043,0.018,0.014,0.04,-0.006,0.017,0.039,0.013,-0.005,0.045,-0.03,-0.044,-0.051,-0.046,0.002,-0.043,-0.013,-0.028,-0.031,-0.011,0.038,0.038,0.041,-0.038,-0.014,-0.034,0.027,-0.017,-0.017,-0.024,-0.018,-0.001,-0.012,-0.031,-0.01,0.035,0.025,0.005,0.052,-0.051,-0.039,-0.023,-0.03,-0.005,0.048,-0.004,-0.053,0.025,0.039,0.012,0.013,-0.041,0.032,-0.016,-0.012,0.04,0.013,0.014,0.012,0.026,0.034,-0.002,-0.052,0.022,-0.047,0.043,-0.022,0.049,-0.037,-0.018,-0.01,-0.003,-0.045,-0.023,-0.013,-0.03,0.042,0.026,0.048,0.014,-0.019,-0.046,-0.012,-0.011,-0.043,0.03,-0.037,0.048,0.037,0.041,-0.044,-0.028,-0.022,0.018,-0.026,0.017,-0.003,0.011,-0.032,-0.02,-0.047,0.047,0.023,0.003,0.008,-0.022,-0.038,-0.041,0.044,-0.044,0.022,0.05,-0.043,0.077,0.046,0.034,0.034,-0.052,0.049,0.005,-0.007,0.019,0.052,0.016,0.019,-0.051,0.022,0.012,-0.049,0.031,0.179],[0.02,0.053,0.003,0.048,0.052,-0.031,0.014,-0.021,0.039,0.045,0.026,-0.028,-0.035,-0.053,-0.045,0.045,-0.038,-0.03,-0.045,0.009,0.022,-0.024,-0.049,0.048,-0.039,0.006,-0.004,0.026,-0.002,-0.013,0.017,0.019,-0.026,-0.005,0.036,0.025,-0.031,-0.024,-0.048,0.037,-0.035,0.001,-0.01,0.045,0.026,0.023,0.016,0.048,0.052,-0.037,0.012,-0.036,-0.043,0.002,0.038,-0.049,-0.02,-0.046,0.044,0.013,0.021,0.044,-0.037,-0.013,0.006,-0.026,-0.006,-0.019,0.046,-0.05,-0.031,-0.008,0.01,-0.053,-0.022,-0.043,0.035,0.025,0.005,0.018,0.051,0.027,0.005,0.01,0.053,-0.023,0.05,0.043,0.013,-0.048,0.023,-0.009,0.005,-0.021,-0.027,-0.049,-0.028,-0.039,0.031,-0.044,0.007,0.052,-0.019,0.052,0.009,0.018,-0.019,0.008,-0.019,0.036,-0.019,-0.052,-0.003,0.05,0.053,0.036,-0.033,-0.012,-0.011,-0.007,-0.038,0.03,-0.01,0.037,-0.016,0.012,0.036,-0.048,-0.018,-0.015,0.007,0.015,-0.013,-0.049,-0.02,-0.052,-0.024,-0.003,0.034,0.011,0.003,-0.053,-0.006,0.026,0.039,0.003,0.046,0.015,-0.042,0.046,0.037,-0.043,0.01,-0.042,0.023,-0.051,-0.042,-0.039,0.047,0.003,-0.041,-0.009,0.002,0.047,-0.049,0.047,0.012,-0.028,0.04,0.021,-0.036,-0.01,-0.024,-0.018,0.045,0.053,-0.054,-0.051,-0.022,0.006,-0.052,0.01,-0.036,-0.032,-0.052,0.024,0.008,0.051,-0.022,0.035,0.051,0.054,-0.051,-0.034,-0.047,-0.036,0.047,0.014,0.03,0.021,0.039,-0.011,0.051,0.004,0.029,-0.04,-0.05,-0.013,0.031,-0.043,0.013,-0.04,-0.049,0.033,-0.008,-0.036,-0.023,0.031,-0.038,-0.042,-0.05,0.02,0.042,0.046,0.053,0.047,0.032,0.006,0.001,0.037,-0.032,-0.027,0.036,-0.012,0.022,0.034,-0.004,0.044,-0.044,-0.032,-0.025,-0.019,0.038,-0.021,0.029,0.017,-0.017,-0.031,0.052,0.003,-0.018,0.004,-0.028,0.014,-0.047,0.01,-0.039,0.014,-0.036,-0.003,-0.032,0.051,0.042,-0.018,-0.028,-0.036,0.053,0.023,-0.01,0.05,0.022,0.013,-0.006,-0.037,0.044,-0.052,-0.017,0.024,-0.048,-0.012,-0.021,0.01,0.044,0.049,-0.052,-0.048,0.03,0.004,-0.031,-0.048,0.009,0.021,0.041,0.036,0.017,-0.013,-0.049,0.016,0.0,-0.037,0.022,-0.005,-0.043,-0.047,0.04,0.009,0.008,0.016,0.04,-0.025,0.002,-0.002,-0.034,0.026,-0.043,0.008,0.046,0.042,0.053,-0.005,0.029,0.044,-0.033,0.043,0.027,0.005,0.075,-0.004,0.023,-0.052,0.003,0.031,-0.003,-0.025,-0.038,0.025,0.022,0.026,-0.041,0.028,-0.007,0.115],[0.043,-0.042,-0.036,-0.018,-0.021,-0.009,-0.02,-0.018,0.015,0.044,0.048,0.027,0.019,-0.029,0.026,0.04,-0.015,0.001,0.005,0.01,-0.043,-0.038,-0.007,0.032,-0.017,-0.015,0.02,0.008,0.04,0.0,0.021,0.049,-0.011,0.033,0.015,-0.052,0.006,0.021,0.037,-0.023,0.031,-0.046,-0.049,-0.024,-0.004,-0.014,0.004,-0.053,-0.025,-0.007,0.011,0.015,-0.04,-0.046,-0.046,0.012,0.004,-0.054,0.036,-0.022,0.025,-0.033,0.021,0.007,0.023,0.037,0.008,0.009,0.013,0.011,0.039,0.004,0.028,-0.046,0.045,0.014,-0.016,0.049,-0.037,-0.045,-0.034,0.028,0.043,0.024,-0.019,0.028,-0.022,0.054,0.009,-0.015,0.04,-0.006,0.04,-0.024,0.02,-0.018,0.034,0.043,0.015,-0.05,-0.045,0.044,-0.001,-0.002,0.009,0.023,0.05,0.039,-0.043,0.032,0.049,0.004,-0.048,0.037,-0.041,-0.006,0.052,0.023,0.0,0.035,0.016,0.02,0.039,-0.017,0.017,-0.019,-0.026,0.036,0.052,-0.053,0.05,-0.035,0.037,-0.042,-0.027,0.016,-0.022,0.028,0.051,0.018,-0.045,0.03,-0.02,0.028,0.034,-0.022,-0.053,-0.048,-0.031,0.047,0.011,-0.028,0.031,-0.046,0.03,0.035,-0.011,-0.0,0.042,-0.04,-0.044,-0.006,-0.02,0.026,-0.034,-0.053,0.016,0.001,-0.021,0.051,0.017,0.024,0.022,0.003,0.03,0.009,0.033,-0.015,-0.005,-0.035,0.028,-0.018,-0.05,-0.005,-0.005,0.008,-0.033,0.006,-0.036,0.01,-0.039,0.022,0.006,0.032,-0.04,-0.015,-0.051,0.006,0.007,-0.045,-0.007,0.006,-0.003,0.012,-0.005,0.037,-0.007,0.033,-0.043,0.053,-0.043,0.007,-0.034,0.048,-0.012,-0.026,-0.02,0.014,0.026,-0.015,0.028,0.035,0.044,-0.045,-0.003,-0.018,-0.031,-0.053,0.033,0.011,0.036,-0.036,-0.053,0.052,0.017,-0.032,0.002,-0.009,-0.02,0.045,-0.043,0.038,0.037,0.007,-0.025,-0.023,0.052,-0.014,0.04,-0.004,0.023,-0.052,0.01,-0.036,-0.023,0.02,-0.04,-0.034,-0.026,0.029,0.013,-0.019,-0.036,0.052,0.007,-0.042,-0.01,-0.015,-0.031,0.008,0.044,0.023,0.038,-0.045,0.011,0.014,-0.004,0.012,-0.052,-0.025,0.035,-0.023,-0.03,-0.025,-0.036,0.029,-0.021,0.041,0.05,0.017,-0.048,0.022,-0.023,-0.032,0.043,0.015,-0.005,0.002,-0.033,0.047,-0.038,0.025,0.026,0.05,-0.009,0.013,-0.034,0.022,0.024,-0.012,-0.02,-0.041,-0.013,-0.054,0.027,-0.013,-0.005,-0.052,0.001,-0.028,-0.009,0.033,-0.011,0.03,0.069,0.06,0.048,-0.001,-0.008,-0.036,0.003,0.0,0.048,-0.051,0.026,-0.054,0.002,-0.045,0.031,0.038,0.025,0.144],[0.023,-0.024,-0.028,0.028,-0.042,-0.016,0.014,-0.019,0.027,-0.05,-0.004,0.035,0.048,-0.01,-0.018,0.037,-0.054,-0.052,0.029,0.024,-0.005,-0.001,-0.048,0.039,-0.003,-0.019,-0.047,0.033,0.045,-0.028,0.03,-0.001,0.052,0.043,-0.043,-0.023,-0.02,0.042,-0.029,-0.045,0.044,-0.031,-0.037,-0.037,-0.04,-0.033,-0.034,0.05,-0.036,0.029,-0.033,0.045,0.046,0.003,0.044,-0.003,0.004,-0.005,-0.002,-0.053,-0.044,-0.039,0.045,0.019,-0.001,0.042,0.019,0.021,-0.044,-0.039,-0.049,-0.024,0.038,-0.035,0.006,-0.033,0.02,-0.046,0.0,0.037,-0.002,-0.003,0.052,0.003,-0.035,0.033,0.001,0.046,-0.036,-0.004,-0.023,0.046,-0.021,-0.038,0.012,-0.05,-0.018,0.031,0.052,0.005,0.024,0.028,0.02,-0.026,0.012,0.049,0.003,0.004,-0.052,-0.047,0.02,-0.033,-0.006,-0.054,-0.025,0.034,0.017,0.054,0.02,-0.017,-0.011,-0.036,-0.044,-0.037,0.049,0.046,-0.046,0.048,-0.033,-0.013,-0.042,-0.015,-0.054,-0.03,-0.035,0.019,-0.036,-0.033,0.036,-0.017,-0.028,-0.0,0.019,-0.01,0.015,-0.005,-0.04,-0.043,-0.042,-0.005,-0.004,-0.039,0.045,-0.002,0.013,-0.024,0.025,-0.003,-0.052,-0.023,-0.007,-0.011,0.054,-0.035,-0.046,0.032,0.004,-0.003,-0.009,0.01,-0.021,0.042,-0.05,0.02,0.046,-0.052,0.032,-0.011,0.013,0.027,-0.03,0.052,0.041,0.013,-0.041,-0.002,-0.041,0.048,0.003,-0.033,-0.042,0.033,0.028,0.006,0.026,-0.006,-0.016,-0.025,0.009,0.008,-0.04,-0.011,0.039,-0.053,0.028,0.011,-0.021,0.024,-0.051,-0.05,-0.046,-0.047,-0.003,-0.047,-0.04,-0.049,0.046,0.021,0.007,0.034,-0.049,-0.016,-0.001,-0.043,0.051,0.004,0.005,0.008,-0.041,-0.039,-0.015,-0.043,0.004,-0.017,0.042,-0.039,-0.02,-0.044,-0.013,0.01,-0.027,0.021,-0.054,0.004,-0.007,0.042,-0.012,0.051,-0.015,0.042,0.035,-0.01,0.023,-0.027,-0.018,0.047,-0.048,-0.011,0.054,-0.038,0.039,0.001,-0.015,0.014,0.053,-0.05,0.024,0.029,0.024,-0.026,-0.046,0.036,0.023,-0.043,0.002,0.016,0.02,-0.042,-0.003,0.008,-0.053,0.004,-0.015,-0.017,-0.036,-0.053,0.037,-0.045,0.023,-0.024,-0.035,0.034,0.039,0.054,0.053,-0.052,-0.0,0.023,-0.022,-0.009,0.004,0.001,-0.008,0.007,-0.046,-0.011,-0.051,0.025,-0.036,0.004,-0.006,0.039,-0.031,0.017,-0.052,-0.02,-0.033,-0.001,0.02,0.047,0.005,0.046,-0.049,0.007,0.046,0.045,0.078,0.043,-0.033,-0.049,-0.021,0.046,0.04,0.051,0.014,-0.027,0.046,0.012,0.005,-0.002,-0.015,0.102],[0.03,-0.023,0.002,0.022,-0.029,-0.034,-0.049,0.038,-0.037,-0.049,0.014,0.054,-0.012,0.017,0.046,0.026,-0.047,0.008,0.049,-0.019,0.037,0.026,-0.008,-0.033,-0.021,-0.024,0.038,0.017,-0.023,-0.018,0.038,-0.052,-0.015,0.007,-0.007,0.046,0.041,-0.046,0.028,-0.034,0.045,0.041,-0.037,0.014,-0.001,-0.051,0.002,-0.0,0.052,-0.054,0.033,0.01,-0.036,0.028,-0.038,0.053,0.014,0.036,-0.036,-0.015,0.031,-0.015,-0.045,-0.009,-0.053,-0.046,0.028,0.014,-0.012,-0.04,-0.024,0.004,-0.016,0.049,-0.024,-0.015,-0.004,0.053,0.019,-0.012,0.042,0.041,-0.036,-0.018,0.021,0.002,-0.026,-0.011,0.039,-0.011,0.013,0.026,-0.044,-0.036,-0.006,-0.049,0.038,0.001,-0.022,-0.017,0.035,-0.013,-0.012,-0.031,-0.011,0.022,0.037,0.034,-0.036,-0.033,-0.05,-0.019,-0.024,0.027,0.017,-0.038,-0.006,-0.037,-0.028,0.009,-0.019,0.052,-0.036,-0.012,0.009,-0.001,0.029,0.025,0.045,-0.024,0.042,0.02,0.029,-0.05,-0.037,-0.046,0.013,0.02,0.046,0.051,0.024,0.008,0.042,-0.038,-0.003,-0.043,0.052,-0.052,0.041,-0.004,0.017,0.028,-0.004,-0.001,-0.036,0.004,-0.029,0.019,0.036,-0.001,0.034,0.023,0.054,-0.027,0.026,-0.031,0.023,-0.041,0.016,0.032,-0.025,-0.048,-0.018,-0.023,0.013,-0.038,-0.005,-0.021,-0.005,0.027,-0.028,0.035,-0.049,-0.018,0.038,0.041,0.009,-0.003,-0.018,0.051,-0.031,0.001,0.003,-0.04,-0.037,0.033,0.038,0.015,0.037,-0.025,-0.019,0.032,-0.053,0.005,0.027,0.03,0.009,0.016,0.002,-0.042,0.021,-0.013,0.025,-0.001,-0.021,0.019,0.014,0.027,-0.048,0.008,-0.03,0.004,-0.048,-0.053,-0.053,-0.013,-0.028,0.033,0.039,-0.04,-0.026,0.053,0.024,0.006,0.008,0.027,-0.039,0.046,0.033,-0.027,-0.054,0.028,0.023,0.035,0.008,0.029,-0.018,-0.021,0.036,-0.045,0.002,0.02,0.007,-0.048,0.05,0.038,-0.007,-0.035,0.043,-0.014,0.046,0.034,0.039,0.03,-0.026,-0.037,-0.009,-0.021,-0.037,-0.038,0.02,0.035,-0.038,-0.017,-0.045,0.024,-0.044,0.014,-0.021,-0.003,0.005,-0.046,0.052,0.007,0.036,-0.054,0.03,-0.012,-0.042,0.026,0.042,0.043,0.024,-0.031,0.05,-0.025,0.052,-0.019,-0.043,-0.043,-0.053,0.015,0.022,-0.025,0.039,0.05,0.009,-0.046,0.038,0.015,-0.035,0.024,0.021,-0.0,0.027,-0.026,0.026,-0.019,-0.013,-0.031,0.015,-0.035,-0.013,0.017,0.06,0.04,0.035,0.017,-0.042,0.015,-0.002,0.029,0.016,0.035,0.015,-0.004,0.01,-0.0,-0.05,-0.054,0.025,0.063],[0.027,0.013,-0.022,0.022,-0.033,-0.044,0.045,0.046,-0.032,-0.048,0.022,0.032,0.049,0.007,-0.019,0.002,0.041,-0.018,-0.024,0.045,-0.001,0.016,0.002,-0.035,0.038,-0.05,-0.025,-0.051,-0.044,0.044,0.034,-0.035,-0.047,0.035,0.021,0.04,-0.039,0.047,0.015,0.013,0.053,0.016,0.051,0.0,-0.0,0.008,-0.009,0.013,0.001,-0.027,0.05,0.022,-0.02,-0.001,0.014,0.047,-0.018,-0.012,0.05,-0.008,0.044,-0.03,0.011,0.047,0.024,0.015,-0.036,-0.04,-0.029,0.049,0.016,0.042,-0.005,-0.052,-0.029,-0.039,-0.043,-0.042,-0.034,-0.024,-0.016,0.013,-0.052,0.051,0.04,0.045,0.005,-0.026,0.031,0.026,0.015,-0.044,0.037,-0.015,-0.004,-0.046,-0.002,0.05,0.009,-0.041,-0.033,0.036,0.04,-0.028,-0.027,0.021,0.014,-0.025,-0.033,0.041,-0.04,-0.029,0.03,0.052,0.003,-0.0,-0.006,0.047,0.022,-0.042,0.011,0.047,-0.045,0.026,-0.042,-0.031,0.023,0.044,0.035,0.044,-0.028,-0.03,-0.032,0.018,0.015,-0.047,0.007,-0.026,0.023,0.018,0.026,0.047,-0.044,-0.007,-0.036,0.025,-0.006,-0.029,-0.017,-0.032,-0.011,0.032,0.021,-0.023,0.012,-0.04,-0.011,-0.039,-0.027,-0.001,0.013,-0.005,-0.027,0.025,0.004,0.046,-0.033,0.022,-0.033,-0.019,-0.048,0.052,-0.017,0.052,-0.047,0.04,-0.052,0.049,-0.025,0.005,0.001,0.036,-0.048,-0.033,-0.007,-0.021,0.002,-0.013,0.019,0.011,-0.05,0.045,-0.037,-0.051,0.044,0.014,-0.039,0.011,-0.021,-0.002,-0.018,-0.044,-0.015,0.013,0.05,-0.02,0.023,0.001,0.034,0.009,0.016,-0.017,0.021,-0.007,-0.041,0.007,0.007,-0.023,-0.01,-0.049,0.01,-0.042,0.035,0.053,-0.048,0.017,-0.016,-0.05,-0.001,-0.016,-0.002,-0.032,0.048,0.004,-0.02,-0.02,0.052,0.011,0.026,0.042,0.022,0.051,-0.026,0.045,0.012,-0.009,-0.05,-0.05,-0.001,-0.021,-0.032,0.018,-0.019,-0.031,-0.048,0.023,0.048,-0.051,-0.013,-0.04,-0.041,0.02,0.029,0.005,-0.027,-0.008,-0.035,-0.017,0.018,0.044,0.052,-0.001,0.008,-0.051,-0.046,0.006,0.016,-0.003,0.032,0.053,-0.035,0.021,0.039,0.036,0.019,0.037,-0.005,0.051,-0.042,-0.053,-0.028,-0.052,0.044,0.048,0.034,0.002,-0.047,-0.047,0.026,-0.002,-0.043,0.05,-0.01,0.015,-0.026,-0.048,-0.046,0.034,0.026,0.01,0.029,0.01,0.038,0.046,-0.0,0.006,0.024,0.003,0.01,-0.033,0.014,-0.045,0.009,0.03,-0.053,-0.044,-0.049,0.007,-0.023,-0.034,0.012,-0.015,0.026,-0.037,0.011,0.012,-0.032,-0.023,0.042,-0.043,0.039,0.015],[-0.033,-0.009,-0.05,0.051,0.019,-0.021,-0.027,-0.003,-0.003,0.005,-0.047,-0.042,0.009,-0.029,0.009,0.014,-0.013,-0.047,-0.016,-0.008,0.049,-0.043,-0.03,-0.036,0.036,-0.01,0.008,-0.003,0.041,-0.029,0.041,-0.008,-0.014,0.027,-0.02,-0.046,-0.034,-0.024,0.014,0.034,-0.014,0.021,-0.023,0.003,-0.024,0.044,0.011,-0.003,-0.034,0.03,-0.003,0.019,0.027,-0.01,-0.006,0.044,0.005,0.014,0.045,-0.007,-0.043,-0.023,0.005,-0.029,0.006,0.02,-0.028,-0.018,0.012,0.041,-0.025,-0.032,0.012,0.049,-0.012,-0.035,-0.048,0.0,-0.047,-0.044,-0.032,0.02,-0.006,-0.005,-0.03,0.005,0.016,-0.033,-0.034,0.047,0.016,-0.027,0.033,0.01,0.049,-0.049,-0.01,-0.054,0.052,0.034,-0.002,0.014,0.009,0.013,0.043,0.025,-0.021,-0.019,-0.029,-0.013,0.023,-0.032,-0.001,0.029,-0.015,-0.012,-0.031,-0.036,-0.001,0.014,-0.026,-0.012,-0.027,0.044,0.025,-0.015,-0.027,0.042,-0.036,0.003,0.011,-0.048,-0.048,0.04,0.011,-0.03,-0.039,-0.049,-0.014,0.009,0.018,0.022,0.037,0.027,0.021,-0.022,0.013,0.023,-0.006,-0.018,0.005,-0.026,-0.029,0.03,0.028,0.035,-0.053,-0.008,-0.053,0.01,-0.016,0.009,-0.053,0.042,0.02,-0.051,-0.026,0.054,-0.053,0.011,-0.032,0.022,-0.009,0.021,-0.005,0.0,-0.025,0.011,-0.026,-0.038,0.034,0.019,0.037,-0.009,0.053,0.033,-0.025,-0.045,0.053,0.026,0.05,-0.009,0.01,-0.035,0.032,-0.0,-0.038,-0.043,-0.05,-0.017,-0.024,0.032,0.041,-0.018,-0.036,-0.042,0.013,-0.048,-0.026,0.052,0.024,-0.013,0.048,-0.024,0.02,0.009,-0.03,-0.035,0.03,-0.031,-0.039,0.008,-0.004,0.019,-0.045,0.006,-0.039,-0.049,-0.005,-0.016,-0.051,-0.023,0.045,-0.024,-0.053,0.052,0.01,0.023,-0.032,-0.04,0.011,0.034,-0.035,0.005,-0.044,-0.007,-0.037,-0.002,0.034,-0.028,0.007,0.012,-0.005,-0.05,-0.004,0.04,0.029,0.026,0.004,0.035,0.028,0.008,0.042,-0.044,0.044,-0.001,-0.022,-0.037,-0.037,-0.05,-0.022,0.042,-0.019,-0.042,0.035,0.034,0.022,0.009,-0.044,-0.038,0.036,0.043,-0.026,0.006,-0.009,0.016,-0.013,0.049,-0.015,0.042,-0.016,0.02,-0.028,-0.045,-0.001,-0.041,-0.021,0.004,-0.031,0.03,-0.017,-0.03,-0.019,-0.024,0.038,-0.009,0.01,-0.03,0.032,0.011,-0.045,0.028,-0.045,-0.039,0.037,-0.015,-0.036,0.021,-0.022,0.014,-0.045,0.017,0.018,0.039,-0.026,-0.046,-0.016,-0.03,0.009,-0.041,0.027,0.045,0.001,0.036,0.039,0.051,0.027,0.018,-0.017,-0.043,-0.026,0.031],[-0.012,0.049,0.048,0.006,0.05,-0.016,0.036,0.042,-0.03,0.021,0.046,-0.034,-0.015,0.023,-0.016,-0.023,0.044,-0.019,-0.051,0.041,-0.011,0.039,-0.024,-0.026,-0.017,0.005,-0.029,-0.048,-0.008,-0.042,0.016,-0.052,0.048,0.034,0.045,-0.038,-0.049,0.035,-0.012,-0.021,0.031,0.016,0.005,-0.048,-0.052,-0.001,0.052,-0.038,-0.018,-0.011,-0.043,0.012,0.011,0.051,-0.04,0.029,-0.012,-0.012,-0.028,0.039,0.019,-0.006,-0.008,-0.02,0.044,0.015,-0.016,0.031,-0.014,-0.04,-0.034,-0.036,0.018,0.011,-0.004,0.002,0.017,-0.034,-0.043,-0.05,0.031,-0.046,-0.041,-0.039,-0.039,0.046,0.053,0.008,-0.03,0.01,0.022,-0.003,0.042,0.044,-0.0,0.018,-0.042,0.021,-0.041,-0.02,-0.02,0.015,-0.041,0.039,-0.021,-0.05,-0.008,-0.025,0.03,-0.044,-0.024,0.041,-0.021,-0.049,0.005,0.045,0.043,-0.014,-0.05,-0.044,0.003,-0.046,-0.026,-0.007,0.038,-0.013,0.037,0.017,-0.038,-0.038,0.047,-0.0,-0.002,0.001,0.037,0.036,0.002,-0.019,-0.037,-0.033,0.024,-0.024,-0.049,-0.001,-0.002,0.03,-0.0,-0.002,-0.049,0.044,0.023,0.025,0.024,0.02,-0.023,-0.004,0.015,0.034,0.003,-0.027,0.039,0.019,0.033,-0.001,0.051,0.006,0.048,0.034,0.051,0.046,-0.048,0.05,0.042,0.051,-0.019,0.042,0.009,0.021,0.003,-0.028,-0.034,0.012,-0.004,-0.02,-0.043,0.052,-0.026,-0.004,-0.04,0.012,-0.026,0.044,0.042,-0.019,-0.053,0.045,-0.015,0.007,0.053,0.009,-0.052,0.0,0.035,-0.03,-0.043,0.017,0.009,0.008,0.003,-0.029,-0.022,0.03,-0.004,-0.039,-0.03,0.021,-0.021,0.039,-0.043,0.052,0.008,0.053,0.014,-0.026,-0.048,-0.034,-0.019,-0.025,-0.009,0.002,0.033,-0.03,0.036,0.004,0.007,-0.003,0.015,0.049,-0.025,-0.01,-0.05,-0.005,0.026,-0.009,-0.048,0.047,-0.011,-0.033,0.024,0.053,-0.012,0.048,-0.049,0.036,0.033,0.03,0.028,0.018,-0.046,0.005,0.007,0.031,0.042,0.025,-0.041,0.018,0.034,0.022,-0.031,-0.02,-0.02,-0.051,-0.046,0.005,0.041,0.023,-0.047,0.021,0.048,0.004,-0.001,-0.021,-0.037,-0.036,0.032,0.019,0.012,0.005,-0.023,0.051,0.001,0.021,-0.027,0.023,0.005,0.048,-0.012,-0.053,-0.032,0.019,-0.023,0.013,-0.03,-0.028,0.036,-0.001,-0.031,0.0,0.022,-0.034,-0.014,-0.043,-0.027,0.006,-0.043,0.052,-0.048,0.004,0.012,-0.051,0.027,-0.025,0.015,-0.022,-0.008,0.076,0.044,0.002,0.029,-0.033,0.022,-0.029,-0.009,-0.045,-0.014,-0.044,0.03,0.037,0.008,0.028,0.038,0.091],[0.002,-0.027,0.022,-0.02,0.025,0.029,-0.023,0.031,0.022,-0.002,0.021,0.019,-0.036,-0.045,0.044,0.003,-0.037,-0.053,-0.01,-0.04,0.015,-0.002,-0.029,0.001,-0.02,-0.021,0.009,-0.013,0.017,0.048,0.036,-0.027,0.011,-0.033,0.018,-0.019,0.051,-0.01,-0.018,-0.018,-0.036,-0.028,-0.037,-0.035,0.046,-0.032,-0.023,0.017,-0.026,-0.04,-0.048,-0.053,-0.023,-0.006,-0.045,0.019,0.018,-0.003,0.02,0.037,-0.04,-0.001,0.044,0.045,-0.008,-0.015,-0.044,-0.006,-0.023,0.019,-0.045,0.025,-0.046,0.018,0.031,0.023,-0.036,-0.026,-0.005,0.013,0.025,0.007,0.041,-0.024,-0.027,0.002,0.036,-0.005,-0.046,0.014,0.046,0.029,0.024,-0.03,-0.047,0.052,-0.014,0.025,0.049,0.036,0.045,0.048,0.002,-0.031,0.011,-0.042,-0.043,0.05,-0.035,-0.043,-0.026,0.051,-0.023,-0.05,0.026,-0.018,-0.019,-0.018,-0.022,-0.0,-0.026,-0.03,-0.051,0.007,0.031,-0.051,-0.053,-0.039,-0.048,-0.053,-0.032,-0.028,-0.031,-0.005,0.016,0.005,0.029,-0.046,0.023,-0.008,-0.01,-0.029,0.001,0.045,-0.01,0.043,-0.049,-0.046,-0.008,-0.011,0.029,-0.013,0.007,0.027,-0.053,-0.024,0.035,0.007,-0.004,-0.013,0.048,0.03,0.044,-0.051,0.017,0.007,0.035,-0.012,0.039,0.032,-0.037,0.009,0.044,-0.016,0.042,0.036,-0.033,-0.025,0.044,-0.014,-0.033,-0.018,0.014,0.054,0.014,-0.034,0.007,0.013,-0.046,0.007,0.017,-0.051,-0.033,0.011,0.039,0.041,-0.044,0.038,-0.0,-0.032,-0.008,0.039,0.011,-0.003,0.045,-0.03,-0.031,-0.022,-0.027,0.029,0.017,0.024,0.008,0.0,-0.035,-0.022,0.019,0.05,-0.033,0.001,0.006,-0.04,-0.028,-0.034,-0.019,-0.026,-0.013,-0.018,-0.048,0.015,0.015,-0.014,0.041,0.043,0.041,0.032,0.003,-0.012,0.052,0.028,0.039,-0.024,-0.039,0.035,-0.006,-0.049,0.036,-0.022,0.052,-0.018,-0.031,0.033,-0.035,-0.01,-0.008,0.043,0.048,-0.012,0.028,0.003,-0.052,-0.03,0.038,0.0,0.005,-0.037,0.026,-0.048,-0.054,0.049,-0.027,0.017,0.007,0.052,-0.023,0.021,-0.007,-0.031,-0.021,0.053,0.031,-0.016,-0.03,0.02,-0.037,0.051,0.034,-0.012,-0.019,-0.022,0.043,0.029,-0.033,-0.046,0.052,-0.007,0.034,0.02,-0.019,0.001,0.042,-0.008,0.001,0.05,-0.011,0.051,-0.015,-0.036,0.008,0.028,-0.014,-0.031,-0.027,0.052,-0.007,-0.034,0.006,-0.029,0.013,-0.009,-0.05,-0.005,0.034,-0.021,-0.029,0.025,-0.033,-0.003,0.052,-0.037,0.026,0.045,0.038,-0.02,0.007,0.022,-0.052,0.012,-0.012,0.014,-0.022,0.03],[-0.018,-0.019,-0.054,0.008,-0.036,0.023,-0.02,-0.052,-0.025,-0.042,-0.03,0.044,0.044,0.022,0.02,0.026,-0.014,-0.021,0.024,0.036,-0.047,-0.043,-0.026,-0.045,-0.042,0.006,-0.044,0.005,0.032,0.045,-0.053,-0.013,-0.031,0.048,0.02,0.014,-0.009,0.041,-0.028,0.034,0.036,0.053,-0.006,0.018,0.02,0.011,0.046,0.042,0.019,0.02,0.034,-0.038,0.001,-0.054,0.036,-0.004,-0.018,-0.001,0.041,-0.008,-0.05,0.043,-0.004,-0.007,0.017,-0.003,-0.02,-0.009,0.041,-0.045,-0.017,0.032,-0.051,-0.027,-0.038,-0.038,-0.002,-0.041,0.001,-0.022,0.051,-0.011,-0.05,-0.018,0.039,0.042,0.029,0.03,0.027,0.051,-0.016,0.032,-0.018,-0.015,0.016,0.034,0.051,-0.04,0.004,0.03,0.03,-0.054,-0.048,0.027,0.019,-0.013,-0.014,0.026,0.046,-0.0,-0.012,-0.052,-0.032,0.008,-0.001,0.02,-0.029,-0.005,0.008,-0.031,0.024,-0.034,-0.046,0.05,-0.05,0.01,-0.014,0.007,0.022,0.03,0.004,-0.009,-0.019,-0.0,-0.046,0.032,-0.011,0.035,0.024,-0.044,0.026,0.018,-0.036,-0.024,0.003,0.005,-0.014,0.013,-0.002,-0.003,-0.051,0.039,0.001,-0.043,-0.026,-0.017,0.05,0.03,0.035,-0.018,0.043,0.001,-0.005,0.02,0.03,-0.006,-0.032,0.006,-0.043,0.018,0.001,0.042,-0.002,0.017,-0.022,0.019,0.035,-0.054,-0.037,0.036,0.052,0.047,-0.018,-0.052,0.011,0.043,-0.016,-0.029,0.052,-0.007,-0.011,0.003,-0.023,0.037,0.017,-0.009,-0.001,0.004,0.001,0.051,0.051,-0.028,0.013,0.002,0.006,-0.008,-0.035,-0.05,-0.004,0.03,-0.015,0.009,0.044,-0.032,-0.053,-0.017,0.042,0.052,0.003,0.012,-0.045,-0.018,-0.052,0.005,0.035,-0.021,-0.022,-0.021,0.039,0.043,0.052,-0.021,0.042,-0.031,-0.011,-0.004,0.001,0.019,0.03,-0.034,-0.041,-0.04,-0.012,0.045,0.038,0.048,0.003,-0.01,-0.044,-0.011,-0.014,0.014,-0.05,0.047,0.012,0.007,-0.023,0.013,0.019,0.007,-0.028,0.01,-0.022,0.001,-0.014,-0.019,-0.05,-0.019,0.01,0.045,0.041,-0.042,-0.012,-0.04,-0.021,-0.037,0.034,0.04,0.021,0.033,0.007,-0.046,0.013,0.017,-0.052,-0.004,0.016,0.005,-0.005,-0.012,0.03,0.032,0.008,0.007,0.033,0.044,-0.011,-0.013,0.009,0.031,0.043,0.017,-0.006,0.027,-0.016,-0.023,-0.002,-0.007,0.045,-0.037,-0.004,0.025,0.004,-0.049,0.008,-0.015,-0.034,0.007,0.006,0.053,0.053,-0.01,-0.02,0.015,0.06,0.075,0.034,-0.018,0.025,0.022,0.037,-0.034,-0.006,0.02,0.018,-0.015,0.028,-0.006,0.012,-0.05,0.013,0.105],[0.008,0.003,0.039,0.02,-0.048,-0.031,-0.03,0.053,-0.026,0.001,0.007,0.036,-0.015,-0.037,0.029,-0.03,-0.023,0.006,0.032,0.052,0.026,-0.015,-0.054,-0.05,-0.022,-0.035,-0.039,0.033,0.006,-0.048,-0.053,0.045,0.02,0.021,0.025,-0.033,0.023,0.029,0.01,-0.001,0.046,0.016,0.046,0.006,-0.025,-0.02,0.032,0.044,0.043,-0.051,0.017,-0.012,0.051,-0.024,-0.047,0.007,0.025,0.009,-0.04,0.041,0.002,0.045,0.027,0.045,-0.036,-0.04,0.021,0.043,0.043,-0.001,0.002,-0.054,-0.012,-0.004,0.035,-0.002,0.033,-0.049,-0.021,0.045,-0.029,0.035,0.039,0.036,0.025,0.041,0.046,0.019,-0.042,0.05,-0.028,-0.053,0.017,-0.043,0.044,0.042,-0.05,-0.037,-0.019,0.048,-0.002,-0.009,0.029,-0.03,0.001,0.045,-0.002,0.026,0.022,0.036,-0.02,0.028,0.019,0.004,0.033,-0.033,0.003,0.03,-0.008,0.045,0.032,0.005,0.031,0.022,-0.039,0.046,-0.037,-0.022,-0.053,0.052,0.046,0.053,0.031,0.049,-0.028,0.026,-0.046,0.011,-0.026,0.034,-0.029,0.022,-0.004,0.011,-0.034,-0.03,0.051,0.019,0.005,0.012,0.052,-0.004,-0.013,0.029,0.033,0.047,-0.042,-0.016,0.006,0.053,-0.031,0.025,0.017,-0.024,0.049,0.027,0.026,-0.045,0.002,0.029,-0.046,0.047,0.044,-0.039,-0.039,0.053,0.018,0.031,-0.028,-0.014,0.008,0.024,0.048,-0.012,-0.018,0.011,-0.015,0.013,0.013,0.004,0.034,0.032,0.015,-0.021,0.016,0.025,-0.045,0.036,-0.01,0.028,-0.002,0.053,-0.017,-0.005,0.029,-0.03,0.005,0.032,-0.053,0.032,-0.045,-0.031,-0.008,-0.046,-0.007,-0.052,0.05,0.035,-0.015,-0.034,0.01,-0.021,0.013,-0.025,-0.041,0.028,-0.05,-0.051,0.036,0.0,-0.019,0.046,0.022,-0.042,0.012,-0.014,-0.05,0.007,-0.022,-0.04,0.032,-0.043,0.017,-0.0,0.002,-0.032,-0.014,-0.037,0.033,-0.003,0.008,-0.024,0.024,-0.03,0.001,-0.053,-0.046,0.032,0.041,0.024,-0.004,-0.044,-0.032,0.007,0.04,-0.008,0.001,0.041,0.038,0.003,-0.002,0.012,-0.053,0.036,0.05,-0.007,0.019,0.037,-0.014,0.001,-0.016,0.024,0.01,0.003,-0.049,0.007,-0.045,-0.026,0.034,-0.004,0.002,0.024,0.019,0.014,-0.015,0.018,-0.006,-0.003,-0.032,-0.034,0.024,-0.007,0.049,-0.02,-0.005,0.012,0.04,0.018,-0.018,-0.024,-0.013,0.049,0.0,-0.044,0.031,-0.039,0.001,-0.02,0.032,0.031,0.027,-0.039,-0.016,0.03,0.051,0.083,0.076,0.023,-0.011,0.039,-0.042,0.022,-0.04,-0.009,-0.043,0.033,0.022,0.012,0.012,-0.025,-0.043,0.002],[0.037,0.048,-0.047,-0.022,-0.05,-0.032,0.037,-0.045,0.017,0.028,0.007,-0.037,0.04,0.003,0.023,-0.007,-0.029,0.019,-0.053,0.019,0.02,0.027,0.01,0.016,-0.02,0.037,-0.012,0.002,-0.033,-0.009,0.016,0.024,0.001,-0.053,-0.004,0.021,0.014,0.009,-0.003,-0.038,0.018,-0.008,-0.022,-0.039,-0.03,-0.005,0.007,-0.041,-0.036,-0.048,0.003,-0.046,-0.046,-0.043,-0.008,-0.003,0.02,-0.038,0.009,-0.037,0.043,0.0,0.043,-0.032,-0.052,0.034,-0.007,-0.037,0.043,-0.012,0.007,-0.01,0.018,-0.038,0.018,0.043,0.013,-0.023,0.018,-0.002,0.05,0.003,-0.007,0.015,-0.003,-0.005,-0.02,0.014,-0.014,0.022,0.028,-0.048,0.035,-0.041,-0.006,0.007,0.045,-0.015,-0.045,-0.037,0.016,0.02,0.05,0.041,-0.041,-0.018,0.017,-0.002,-0.042,-0.019,-0.004,0.023,-0.05,-0.038,-0.03,0.005,0.004,0.039,0.009,0.053,0.038,-0.031,0.049,0.003,-0.048,0.035,-0.039,-0.042,-0.009,0.011,-0.003,-0.047,-0.022,-0.026,-0.029,-0.037,0.004,-0.005,0.01,-0.016,0.044,-0.049,0.006,-0.02,0.007,0.002,0.049,0.005,0.015,-0.013,0.034,0.049,-0.004,0.024,-0.014,0.021,-0.033,0.049,-0.027,0.051,-0.014,-0.039,-0.023,-0.016,-0.024,0.025,-0.037,-0.001,0.033,0.029,-0.04,0.01,0.023,-0.014,-0.044,-0.018,-0.0,0.028,-0.005,0.049,0.04,-0.042,-0.02,-0.019,-0.004,0.025,-0.015,-0.044,0.007,-0.043,-0.02,0.027,0.011,0.014,0.023,0.043,-0.035,-0.023,0.033,0.04,-0.024,-0.033,0.003,0.022,0.001,-0.04,0.045,-0.006,-0.013,-0.024,-0.017,0.005,-0.024,-0.053,0.04,-0.023,-0.041,0.008,0.018,0.025,0.007,-0.021,0.04,0.02,-0.011,-0.016,-0.04,-0.011,-0.024,-0.042,0.015,0.044,-0.044,0.047,0.053,0.015,0.012,0.028,0.039,-0.024,0.053,0.009,0.021,0.048,-0.024,-0.041,0.052,0.024,0.01,0.007,-0.003,0.054,-0.01,0.013,-0.044,0.045,-0.04,0.049,-0.018,-0.029,0.011,-0.003,0.003,-0.015,-0.031,0.02,0.044,0.015,0.052,-0.013,0.047,0.017,0.042,-0.019,0.041,0.036,0.047,0.031,-0.01,0.041,0.049,-0.027,-0.043,-0.027,0.021,-0.038,-0.038,0.034,0.005,-0.028,-0.044,-0.016,0.013,0.017,-0.045,0.043,0.053,0.046,0.02,-0.053,-0.014,0.024,0.02,0.004,0.017,0.046,-0.018,0.05,0.043,0.014,0.015,-0.045,-0.02,-0.023,-0.051,-0.016,0.034,0.029,-0.011,0.004,0.048,-0.022,-0.023,0.047,0.091,0.052,0.089,0.027,-0.048,0.044,0.039,0.007,0.04,0.007,-0.036,0.009,0.01,0.048,-0.024,0.002,0.036,0.103],[0.015,-0.041,0.022,0.052,-0.046,0.02,0.043,0.044,0.04,-0.026,-0.003,0.001,-0.004,-0.006,0.025,0.013,-0.042,0.021,-0.0,0.015,-0.048,-0.052,-0.046,-0.011,0.03,-0.025,0.011,-0.046,0.043,-0.005,0.02,-0.006,-0.041,-0.035,0.026,0.016,0.043,0.048,-0.025,0.051,0.02,-0.007,-0.036,-0.015,-0.008,0.033,0.051,-0.007,0.041,0.038,0.006,0.05,0.004,0.006,-0.05,-0.02,-0.017,0.018,-0.008,0.036,0.002,0.041,0.027,-0.009,0.018,0.014,-0.016,0.029,-0.016,-0.045,0.024,-0.037,-0.002,0.032,-0.038,-0.007,-0.007,-0.041,0.046,-0.019,0.035,0.034,0.034,0.009,0.053,0.027,0.002,0.032,-0.037,0.052,0.032,0.017,0.024,-0.012,0.018,0.025,-0.041,-0.043,-0.043,-0.041,-0.003,-0.037,-0.019,0.008,0.014,0.017,-0.038,0.04,0.038,0.034,0.015,0.018,-0.05,-0.044,0.031,-0.049,-0.006,-0.047,-0.015,0.053,0.009,-0.035,-0.017,0.024,0.031,0.018,0.033,0.039,0.037,-0.051,0.034,0.029,-0.015,-0.029,0.022,-0.045,0.02,0.047,-0.049,-0.015,0.007,-0.019,0.036,0.002,0.039,0.052,-0.038,0.021,0.007,-0.053,-0.019,0.028,0.035,-0.008,-0.052,-0.016,-0.04,0.03,-0.03,0.0,0.006,-0.023,0.012,0.035,0.015,-0.041,-0.027,-0.033,0.04,-0.051,-0.005,-0.025,-0.043,0.025,0.032,-0.014,0.031,-0.017,0.005,-0.033,0.041,-0.005,0.019,-0.049,0.028,-0.013,-0.054,-0.044,0.054,-0.012,0.048,-0.0,0.04,0.04,0.023,0.031,0.002,-0.025,0.041,0.004,-0.039,0.014,-0.0,0.001,0.042,-0.038,-0.011,0.0,-0.031,-0.053,-0.027,-0.046,0.019,-0.014,-0.042,0.044,0.02,-0.005,0.04,-0.01,-0.001,0.018,0.024,-0.022,-0.007,-0.012,0.037,0.033,-0.02,-0.045,0.006,0.045,0.018,0.019,-0.042,-0.05,0.048,0.014,-0.013,-0.004,0.013,0.048,-0.008,0.03,0.026,0.003,0.001,0.006,0.014,-0.002,-0.045,0.022,0.04,0.026,0.043,-0.045,0.038,0.009,0.043,0.051,-0.045,0.028,0.022,0.006,0.014,-0.002,0.029,-0.043,-0.018,0.035,-0.03,0.012,-0.017,0.032,0.016,0.022,0.03,-0.049,-0.009,0.001,-0.046,0.001,-0.024,0.031,-0.039,0.048,-0.033,0.015,-0.035,0.028,-0.029,-0.051,-0.022,-0.053,-0.015,0.022,0.016,0.011,0.001,0.013,0.024,0.048,0.015,0.019,0.033,-0.012,0.009,-0.024,-0.054,0.026,0.008,0.043,0.03,0.011,-0.04,0.051,-0.021,-0.021,0.0,-0.01,0.019,0.039,-0.013,-0.021,0.06,0.095,0.089,0.003,0.047,0.026,0.049,0.028,-0.034,-0.001,0.027,-0.024,-0.016,-0.024,0.035,0.002,0.004,0.165],[-0.023,0.054,-0.042,0.033,0.052,0.024,-0.013,-0.017,-0.039,0.022,0.023,0.047,-0.051,-0.05,0.02,-0.039,0.049,0.042,0.036,0.033,0.042,-0.023,0.008,0.035,0.053,-0.04,0.041,-0.01,-0.035,0.002,-0.041,0.043,-0.03,0.039,0.003,-0.005,0.045,-0.028,-0.006,0.014,0.001,0.021,0.039,0.01,0.034,-0.037,-0.053,-0.017,-0.009,-0.031,-0.003,-0.004,0.039,0.038,0.049,-0.022,-0.021,-0.009,-0.047,-0.05,-0.04,0.043,0.013,0.03,0.019,-0.01,-0.035,-0.014,0.035,-0.036,0.054,0.039,0.03,0.031,0.015,0.031,-0.051,-0.035,0.005,-0.004,-0.007,-0.048,0.023,0.016,-0.023,-0.049,-0.032,-0.039,-0.05,0.043,-0.004,-0.025,0.025,0.046,0.003,-0.05,0.024,0.024,0.05,-0.015,0.039,-0.04,0.034,0.006,-0.034,-0.046,-0.01,0.046,-0.011,0.021,0.007,-0.007,0.032,-0.048,0.026,-0.006,0.031,-0.004,0.005,0.04,0.048,0.032,-0.028,0.05,0.03,-0.029,0.032,-0.031,-0.014,0.05,0.003,0.014,-0.054,-0.052,0.027,-0.007,0.04,0.045,0.029,0.021,-0.019,-0.036,0.022,-0.006,-0.052,0.016,0.046,-0.048,-0.03,0.045,0.019,0.054,-0.008,0.049,0.032,0.013,0.049,0.023,0.025,-0.014,0.053,0.046,-0.009,-0.029,0.023,-0.034,0.047,-0.051,0.011,0.001,-0.028,-0.029,0.004,0.004,-0.019,-0.012,-0.022,0.008,-0.036,-0.039,-0.028,-0.023,-0.0,0.026,-0.026,0.021,-0.011,0.042,-0.051,0.012,-0.037,0.045,-0.025,-0.032,0.012,-0.018,0.04,0.015,-0.036,0.036,0.039,0.039,-0.051,0.002,-0.031,0.007,-0.005,-0.017,-0.026,-0.041,0.026,-0.044,-0.028,0.053,-0.05,-0.033,0.001,-0.034,-0.033,-0.027,-0.007,0.054,0.052,-0.0,-0.034,0.019,-0.035,-0.012,0.037,0.042,-0.039,-0.05,-0.027,0.049,0.007,0.028,0.013,-0.013,-0.053,-0.038,-0.038,-0.019,0.043,0.032,-0.009,-0.034,0.019,-0.021,0.042,-0.027,0.004,-0.028,-0.005,-0.022,-0.034,-0.038,0.014,-0.026,0.015,0.023,0.035,-0.041,-0.045,0.044,0.043,-0.01,0.029,-0.029,0.018,0.043,-0.024,-0.01,0.038,0.033,-0.054,0.054,-0.026,-0.011,-0.011,-0.054,-0.018,-0.049,-0.051,-0.053,0.04,-0.021,0.045,0.016,-0.008,-0.002,-0.033,-0.038,-0.004,-0.009,-0.012,0.045,0.013,0.039,-0.01,-0.044,-0.025,0.021,0.018,0.043,-0.034,0.015,-0.008,0.039,-0.027,-0.006,-0.049,-0.038,-0.019,-0.001,0.037,0.028,-0.041,0.045,-0.032,-0.053,0.042,0.011,0.033,-0.009,0.025,0.023,0.047,-0.044,-0.006,0.02,-0.035,-0.031,0.024,-0.009,0.02,0.008,0.032,-0.012,0.02,-0.041,0.003,0.121],[-0.019,0.016,0.024,0.027,-0.003,-0.047,-0.002,0.033,0.006,0.02,0.037,0.048,-0.011,-0.007,0.001,-0.029,-0.01,-0.041,0.014,0.04,0.036,-0.026,0.034,0.041,0.009,0.018,-0.004,-0.034,-0.0,0.021,-0.003,-0.027,0.026,0.015,0.007,0.016,0.033,0.048,0.021,0.05,-0.035,-0.021,0.048,0.015,-0.031,0.045,-0.042,0.003,0.013,-0.026,-0.007,-0.01,-0.054,0.013,-0.001,0.043,0.041,0.032,0.008,0.043,-0.043,-0.006,0.038,0.007,0.01,-0.023,-0.017,0.022,-0.04,0.007,-0.05,-0.027,-0.012,-0.001,-0.002,0.053,0.052,0.021,-0.041,-0.027,-0.016,-0.002,-0.008,0.049,0.008,0.034,0.011,0.049,0.045,0.024,0.031,-0.015,0.006,-0.049,-0.033,-0.033,0.01,-0.028,-0.041,0.034,-0.013,-0.004,0.007,-0.053,-0.012,0.018,0.04,0.038,-0.042,-0.001,0.005,-0.02,-0.031,-0.046,0.012,0.052,0.019,-0.029,0.018,0.013,0.006,0.014,-0.032,0.016,0.044,0.018,-0.016,-0.002,0.044,0.045,-0.024,0.01,-0.044,0.033,-0.048,0.019,-0.041,-0.031,0.033,-0.051,0.005,0.052,0.025,-0.022,-0.043,0.033,0.039,-0.051,-0.025,0.035,0.034,-0.03,-0.052,0.04,0.031,-0.011,0.011,-0.047,0.016,-0.044,0.053,0.008,-0.035,-0.05,0.011,0.009,0.024,0.047,-0.03,0.015,0.037,0.034,0.005,-0.027,-0.038,-0.052,0.026,-0.044,0.036,0.004,0.053,-0.02,-0.043,-0.012,0.014,-0.046,0.05,-0.028,-0.032,-0.046,0.025,0.04,0.016,0.012,-0.0,0.015,0.01,0.013,-0.005,0.005,0.051,0.018,-0.014,-0.033,-0.047,-0.046,-0.034,-0.007,0.05,-0.017,0.039,0.013,0.053,-0.013,0.01,-0.045,-0.035,-0.021,-0.046,-0.004,0.027,-0.016,-0.038,0.044,-0.033,0.047,-0.026,0.006,-0.034,-0.049,0.039,0.023,0.046,0.049,-0.017,0.002,0.012,-0.031,-0.023,-0.011,0.046,-0.011,0.033,-0.006,-0.044,0.038,0.002,-0.008,-0.038,0.002,-0.041,-0.005,0.043,0.041,0.05,-0.036,0.013,-0.039,-0.006,0.054,-0.032,-0.036,-0.05,-0.048,0.032,-0.028,-0.05,0.004,0.028,-0.02,0.031,-0.028,-0.015,0.009,-0.003,0.036,-0.007,-0.049,0.007,0.01,0.05,-0.02,-0.017,0.013,0.039,-0.032,0.054,-0.021,0.042,-0.023,-0.025,0.018,0.007,-0.027,0.006,0.05,0.004,-0.032,-0.029,-0.028,0.036,0.033,0.003,-0.006,-0.009,0.008,0.051,0.047,0.042,-0.013,0.04,-0.04,0.01,0.03,0.045,-0.054,-0.054,0.042,-0.046,0.031,-0.04,0.005,-0.024,0.002,0.023,0.084,0.083,-0.031,-0.036,-0.03,-0.048,-0.005,0.016,0.01,0.039,0.045,-0.019,0.008,-0.004,-0.002,-0.015,0.103],[-0.009,0.048,0.013,-0.053,-0.006,-0.0,0.026,-0.015,-0.052,-0.047,0.045,0.048,0.019,-0.042,-0.001,-0.048,0.006,0.018,-0.037,-0.041,-0.041,-0.047,0.054,-0.052,-0.014,0.032,0.016,-0.047,0.034,0.026,0.04,0.053,-0.017,0.053,0.01,-0.027,0.006,0.03,0.005,-0.052,-0.03,-0.0,-0.0,-0.029,0.002,0.039,0.019,-0.001,-0.048,-0.032,-0.045,0.007,0.016,-0.007,-0.025,0.014,-0.003,0.035,-0.041,0.03,0.03,0.014,0.049,-0.027,0.0,0.016,-0.042,-0.054,0.03,-0.035,-0.047,0.025,0.047,-0.023,0.007,-0.032,-0.046,-0.022,0.039,-0.019,-0.049,-0.013,0.042,-0.003,0.012,0.025,0.019,0.005,0.053,0.014,0.041,-0.038,-0.022,-0.025,0.004,-0.008,-0.046,0.033,0.016,0.047,-0.007,0.03,0.003,-0.026,0.007,0.047,-0.028,0.013,-0.037,-0.007,0.05,-0.032,0.037,-0.033,0.037,0.013,0.038,0.021,0.019,-0.018,0.038,-0.019,0.024,0.021,0.01,-0.011,-0.009,-0.045,0.028,-0.051,0.028,-0.042,-0.026,0.046,0.032,-0.027,0.019,0.017,0.046,-0.007,-0.021,-0.015,0.008,0.029,0.038,-0.027,0.001,-0.027,0.051,-0.009,0.037,0.046,0.023,-0.039,-0.037,0.025,-0.037,0.002,0.02,0.006,0.052,0.053,0.01,0.019,0.04,-0.041,0.05,-0.05,0.054,-0.025,0.053,0.001,0.01,0.011,0.0,0.03,-0.0,0.015,-0.01,0.041,0.016,-0.037,0.002,-0.018,0.013,-0.046,0.04,0.037,-0.006,0.035,-0.021,-0.006,0.017,-0.046,0.045,-0.052,-0.024,-0.001,-0.029,-0.038,0.048,0.011,-0.03,0.029,-0.031,-0.035,0.036,-0.014,0.047,0.014,0.023,-0.003,0.037,0.036,-0.031,0.015,0.046,0.017,-0.006,-0.035,-0.002,-0.043,-0.05,0.024,-0.054,0.016,0.001,-0.019,-0.03,0.006,-0.041,0.016,-0.052,-0.046,-0.046,0.046,0.038,-0.022,-0.019,-0.034,-0.037,0.031,0.007,-0.026,0.019,0.037,0.01,-0.029,0.006,-0.029,-0.002,0.03,-0.025,-0.046,-0.05,0.042,0.007,-0.019,-0.05,-0.035,0.002,-0.0,0.005,0.015,0.001,0.053,0.028,-0.019,-0.03,-0.033,0.043,-0.016,-0.043,0.013,0.01,-0.052,0.013,0.035,-0.024,-0.019,0.041,0.047,-0.034,0.031,-0.05,0.016,0.003,-0.012,-0.012,0.045,-0.048,-0.024,-0.054,0.042,0.023,-0.042,-0.04,0.038,0.036,0.004,-0.036,0.053,-0.025,0.032,0.023,-0.032,0.003,0.043,-0.017,0.017,-0.015,-0.001,-0.021,-0.028,-0.028,-0.009,0.003,0.014,0.049,0.051,0.003,0.016,0.006,0.035,-0.044,-0.03,-0.051,0.009,0.044,0.026,0.002,0.051,0.036,-0.032,-0.007,0.042,-0.034,-0.025,0.028,-0.017,0.054,0.046],[-0.042,-0.049,-0.001,-0.049,0.033,-0.022,0.024,-0.011,-0.042,-0.047,-0.047,0.014,0.02,0.009,-0.007,-0.023,0.022,0.019,-0.043,0.016,-0.045,-0.018,-0.011,-0.051,-0.022,-0.05,0.021,0.051,0.02,0.001,0.015,0.021,-0.041,0.018,0.034,-0.025,-0.045,-0.01,0.05,-0.039,-0.034,0.031,-0.034,0.026,-0.019,0.008,-0.027,0.03,-0.037,-0.022,-0.049,-0.002,0.032,-0.023,0.022,0.022,0.022,-0.012,0.019,-0.004,-0.006,0.039,-0.009,-0.013,0.036,-0.05,-0.042,0.002,-0.029,-0.033,-0.012,-0.019,0.028,0.028,0.01,0.002,0.015,-0.045,-0.032,-0.04,0.05,0.049,-0.023,-0.004,0.004,-0.04,-0.011,-0.051,-0.006,0.015,0.046,0.052,-0.027,-0.003,-0.007,-0.037,-0.013,0.039,0.049,0.038,0.024,-0.016,0.01,0.014,-0.04,0.031,-0.028,0.01,0.001,0.015,0.001,0.032,-0.033,-0.025,-0.011,0.023,-0.036,0.034,0.04,0.05,0.054,0.017,-0.051,-0.014,-0.032,0.046,-0.049,-0.003,-0.006,-0.026,0.046,-0.033,-0.04,0.002,0.039,0.045,-0.043,0.005,-0.051,0.011,-0.028,0.0,-0.019,0.037,0.003,-0.033,0.05,-0.034,0.036,-0.044,0.013,0.044,-0.052,0.032,-0.032,-0.003,-0.014,-0.023,-0.036,-0.039,0.009,0.014,-0.02,0.035,-0.03,-0.054,-0.028,0.013,-0.018,-0.043,0.054,-0.035,0.024,0.047,0.008,-0.001,0.022,0.032,-0.043,0.046,-0.051,0.048,-0.007,0.034,0.02,0.05,0.021,0.044,-0.043,0.008,-0.017,-0.015,0.021,0.035,0.053,-0.005,0.015,-0.037,0.038,-0.041,-0.043,-0.002,-0.033,0.029,-0.028,-0.018,0.026,0.014,0.049,0.001,-0.011,0.017,0.049,0.048,0.051,-0.017,-0.014,-0.016,0.008,-0.038,0.049,0.03,-0.036,0.014,-0.053,-0.043,-0.041,0.036,-0.045,0.002,0.023,-0.02,0.038,-0.035,0.049,-0.022,0.033,0.003,-0.028,0.026,-0.008,0.039,0.049,-0.012,-0.035,0.016,-0.023,0.01,0.033,0.036,0.038,0.015,-0.017,0.051,-0.002,0.049,0.007,0.045,0.033,-0.044,-0.027,0.008,-0.026,0.026,-0.024,0.029,-0.049,0.014,0.02,0.019,-0.003,-0.017,0.009,-0.053,0.018,0.045,0.03,0.044,0.021,0.048,0.045,0.045,-0.009,0.023,0.013,-0.007,-0.02,0.027,0.007,0.046,-0.048,-0.012,-0.027,-0.026,0.026,0.039,0.043,-0.014,-0.039,0.018,-0.049,-0.006,0.026,-0.009,0.039,-0.038,-0.01,-0.022,0.03,0.001,0.038,-0.047,0.0,0.03,0.036,-0.033,0.037,-0.046,0.036,0.01,-0.001,0.024,-0.007,0.027,0.024,0.021,0.05,0.017,-0.043,0.05,0.017,0.004,0.016,0.046,-0.046,0.041,0.029,-0.038,0.049,0.035,0.03,0.104],[-0.035,0.043,0.033,-0.052,0.039,0.034,-0.032,0.04,0.049,0.034,0.04,0.049,0.013,-0.01,0.015,0.051,-0.046,-0.023,0.004,0.011,-0.043,-0.032,-0.025,0.015,0.007,-0.053,-0.019,0.032,0.046,-0.032,-0.002,-0.039,0.038,-0.046,0.018,0.002,0.022,-0.025,0.023,-0.042,0.052,0.041,-0.01,-0.032,0.031,0.054,0.039,-0.01,-0.001,0.037,0.009,0.014,0.009,0.014,0.022,-0.005,0.052,-0.026,-0.001,0.015,-0.038,-0.024,-0.033,0.043,-0.007,0.013,0.036,-0.039,0.041,0.035,0.005,-0.005,-0.03,0.036,-0.052,-0.001,-0.001,0.02,0.005,-0.016,0.021,-0.033,0.028,-0.003,-0.005,-0.03,0.016,-0.051,0.026,-0.02,0.043,-0.033,-0.038,0.031,-0.026,0.013,0.011,-0.047,-0.046,-0.049,0.027,0.003,-0.054,-0.031,-0.012,-0.004,0.033,0.048,-0.016,0.017,0.037,-0.0,0.037,-0.008,-0.02,0.032,0.005,-0.002,-0.033,-0.047,-0.048,0.033,0.031,-0.011,-0.039,0.052,-0.021,0.014,0.031,0.004,-0.014,-0.003,-0.054,-0.045,0.001,-0.017,0.037,0.048,-0.051,0.05,0.039,-0.02,0.018,0.018,-0.025,0.019,0.0,0.047,0.031,0.047,-0.023,0.014,-0.045,0.015,0.002,-0.031,0.003,-0.031,0.014,-0.002,-0.002,-0.022,0.016,0.015,-0.035,0.003,-0.019,0.051,0.027,0.047,0.039,-0.052,-0.048,0.043,-0.032,-0.034,-0.009,0.008,0.045,-0.001,0.04,-0.037,0.042,0.003,-0.0,0.018,-0.006,0.005,0.043,-0.006,0.032,-0.05,0.019,0.012,-0.047,-0.053,-0.019,0.044,-0.051,-0.001,-0.05,0.021,0.04,-0.036,0.008,-0.025,-0.002,0.009,-0.01,-0.05,-0.024,0.043,0.013,0.045,-0.032,-0.034,0.045,0.012,0.018,0.011,-0.054,-0.003,0.048,0.048,-0.033,-0.0,-0.035,0.036,-0.029,-0.02,0.025,0.017,-0.004,-0.045,0.002,-0.032,-0.05,0.048,0.013,0.027,-0.006,0.041,0.012,-0.042,-0.008,-0.038,-0.027,-0.031,0.015,0.024,0.032,-0.018,0.001,0.018,0.026,0.053,-0.024,-0.039,0.001,0.003,0.007,-0.001,-0.003,-0.011,-0.031,-0.045,0.015,0.047,-0.001,-0.007,-0.028,0.016,0.042,0.044,0.046,0.051,-0.038,-0.029,0.042,0.038,0.014,0.038,-0.029,0.051,-0.009,-0.007,0.032,0.014,-0.046,0.013,-0.047,0.043,0.046,-0.014,0.042,-0.031,0.004,0.012,0.029,0.017,0.027,-0.017,-0.027,0.031,0.037,-0.051,0.015,0.013,0.036,-0.008,0.011,0.026,-0.041,0.01,0.049,0.048,-0.046,0.015,0.011,-0.047,-0.043,-0.021,0.006,0.051,0.059,-0.023,-0.024,-0.012,0.04,-0.041,0.019,-0.003,-0.039,-0.046,-0.017,-0.019,0.025,-0.042,0.005,-0.009,-0.012,0.05],[-0.051,-0.007,-0.021,0.034,-0.052,0.012,-0.021,0.002,-0.004,-0.036,-0.02,-0.006,-0.003,-0.048,0.014,-0.022,0.026,-0.017,0.046,-0.006,-0.024,0.024,-0.031,0.002,0.05,-0.003,-0.001,0.017,-0.016,0.043,0.013,-0.035,-0.044,0.046,-0.013,0.05,-0.017,0.048,0.006,0.03,-0.002,-0.018,0.007,0.044,0.046,-0.008,0.007,0.024,-0.026,0.035,0.005,0.009,-0.033,0.05,-0.047,-0.012,0.041,0.001,0.01,0.046,-0.046,-0.02,-0.049,0.015,-0.051,0.011,-0.017,-0.046,-0.005,0.023,0.012,0.049,0.043,-0.027,-0.005,-0.01,-0.006,0.012,-0.023,-0.042,-0.024,0.053,0.025,0.022,-0.045,0.051,-0.003,-0.044,0.033,-0.043,-0.032,0.021,0.042,0.031,0.053,-0.0,0.037,0.018,0.021,0.023,-0.027,0.047,0.026,0.054,-0.051,0.047,0.012,0.053,0.041,-0.029,-0.024,0.039,0.006,0.032,-0.046,0.006,0.023,-0.044,-0.018,-0.016,0.024,-0.021,-0.009,-0.008,0.019,0.003,-0.012,-0.02,-0.013,0.022,0.053,0.042,0.01,-0.001,0.031,0.041,0.008,-0.009,0.006,-0.006,0.05,-0.02,-0.006,-0.041,0.034,0.013,0.047,-0.035,0.02,-0.016,0.035,-0.007,-0.042,0.027,0.045,-0.048,-0.031,0.044,-0.054,0.008,-0.01,0.027,0.051,0.018,0.036,-0.008,-0.031,-0.019,0.02,0.01,-0.003,-0.014,-0.012,0.04,0.024,0.018,-0.015,-0.042,0.047,-0.044,0.019,-0.042,-0.03,-0.031,0.036,-0.045,0.011,-0.028,0.046,0.024,0.028,-0.017,-0.025,-0.048,0.009,0.035,0.052,0.015,0.033,0.05,0.009,-0.015,-0.048,0.014,0.032,-0.032,-0.027,0.027,0.039,-0.039,-0.038,0.048,-0.052,-0.007,0.04,-0.047,0.035,0.03,-0.048,0.028,0.034,-0.029,-0.022,0.016,-0.027,0.014,0.023,0.008,-0.01,-0.035,0.01,0.025,-0.027,-0.045,-0.038,-0.047,-0.003,0.045,0.024,-0.037,-0.023,-0.02,0.006,0.036,0.024,-0.032,0.022,0.01,0.042,-0.048,0.019,-0.034,0.033,0.027,0.032,-0.005,0.038,0.049,0.034,0.015,-0.015,-0.015,0.053,-0.038,-0.01,-0.003,0.01,0.04,-0.048,0.048,-0.026,0.054,0.026,-0.011,0.047,0.037,0.019,-0.026,0.049,-0.019,-0.025,0.048,-0.024,0.02,0.03,0.026,-0.035,-0.043,0.049,-0.035,-0.011,0.03,0.041,-0.017,0.028,-0.02,-0.046,-0.001,-0.021,-0.041,-0.021,0.031,0.005,-0.013,0.006,-0.03,0.026,-0.003,0.023,-0.009,-0.024,-0.019,0.009,0.021,0.011,-0.008,-0.05,-0.006,0.035,-0.027,-0.044,0.026,0.035,0.004,0.067,0.098,0.027,-0.051,-0.008,-0.012,0.001,0.018,0.009,-0.004,0.049,-0.01,-0.009,0.022,-0.005,-0.033,-0.012,0.098],[0.002,-0.003,-0.023,-0.045,-0.01,-0.042,0.016,0.037,-0.033,0.025,-0.006,0.02,-0.04,-0.04,-0.05,0.006,-0.044,0.038,-0.021,-0.053,0.048,0.026,0.037,0.01,-0.039,0.027,-0.022,-0.009,-0.026,-0.053,-0.031,0.035,-0.05,-0.047,0.036,0.034,-0.011,0.033,0.027,-0.047,-0.052,-0.036,-0.047,0.035,0.047,-0.041,-0.01,0.001,0.038,0.028,-0.008,0.045,-0.047,-0.01,-0.006,-0.041,0.053,0.014,-0.051,0.018,0.003,-0.004,-0.042,0.015,-0.009,-0.033,0.002,-0.016,0.012,0.016,-0.034,-0.031,0.04,-0.007,0.049,-0.043,-0.007,-0.012,0.023,0.045,0.006,-0.045,0.018,-0.038,-0.033,-0.047,-0.048,0.021,0.012,-0.012,0.003,0.028,-0.012,0.025,0.031,0.032,-0.012,0.04,0.007,-0.041,-0.018,-0.041,0.04,0.027,0.006,-0.036,-0.025,0.046,-0.033,0.025,0.018,-0.01,0.023,-0.006,-0.045,0.048,0.01,0.013,-0.014,-0.05,-0.051,0.018,0.041,-0.039,0.005,-0.054,0.01,0.011,0.028,0.024,-0.012,0.043,-0.007,0.028,0.037,0.001,-0.041,-0.032,0.007,-0.029,-0.014,0.048,0.052,0.043,-0.033,-0.049,0.005,0.033,-0.006,0.048,0.045,-0.048,-0.019,0.01,-0.033,0.038,0.001,0.032,0.05,-0.036,0.05,-0.039,0.033,-0.012,0.047,-0.003,-0.014,-0.009,-0.036,-0.04,-0.03,-0.008,0.004,-0.031,-0.006,0.021,-0.0,0.036,0.017,0.046,-0.042,-0.037,0.039,0.014,-0.021,0.038,0.014,0.016,0.044,0.033,0.051,0.026,0.032,-0.024,-0.053,-0.017,-0.048,-0.047,-0.009,0.029,0.025,-0.028,0.012,0.039,0.013,0.035,0.047,-0.033,0.01,0.03,0.022,-0.032,0.018,0.002,-0.028,-0.024,0.012,-0.01,-0.01,0.027,0.009,-0.04,-0.001,0.027,0.037,0.042,-0.02,0.021,0.04,0.047,0.038,-0.026,0.043,0.021,0.033,-0.041,0.047,0.053,-0.047,-0.022,-0.031,0.013,0.005,-0.0,0.042,-0.032,-0.032,0.04,0.015,0.011,-0.05,0.005,-0.022,0.021,0.012,-0.042,0.052,-0.02,-0.022,-0.052,0.053,-0.011,0.036,-0.035,0.008,-0.022,-0.037,0.052,0.019,0.022,-0.033,-0.046,-0.002,-0.037,0.026,0.009,-0.044,-0.051,-0.004,0.001,-0.029,0.006,-0.044,0.022,0.028,-0.015,-0.005,-0.028,-0.029,-0.02,0.037,-0.023,-0.016,0.001,0.045,-0.037,0.01,0.028,0.03,-0.013,-0.035,-0.004,-0.003,-0.002,0.0,-0.023,-0.048,0.009,-0.042,-0.032,-0.049,0.046,0.033,0.036,-0.043,-0.034,0.021,0.029,0.017,0.029,0.027,0.027,0.046,0.041,-0.056,0.044,0.023,0.001,-0.033,0.017,-0.006,-0.001,0.025,-0.038,0.053,-0.018,-0.007,0.043,0.019,0.004,0.003,0.0],[-0.006,-0.03,-0.044,0.034,-0.026,0.047,-0.041,0.039,-0.026,0.008,0.037,-0.006,0.041,-0.004,-0.032,-0.041,-0.036,0.004,0.049,-0.027,-0.015,-0.025,0.018,-0.039,-0.014,0.019,-0.026,-0.023,0.023,-0.031,-0.003,-0.006,-0.01,-0.046,0.038,0.035,-0.001,0.049,0.044,0.037,-0.009,-0.049,0.017,0.023,0.031,0.009,0.054,-0.011,-0.054,0.044,0.009,0.007,-0.009,-0.04,-0.022,0.011,-0.028,-0.027,0.015,-0.048,-0.035,0.021,0.054,0.048,-0.036,0.007,0.028,-0.011,0.014,-0.024,0.038,0.025,-0.039,0.032,0.004,-0.041,-0.035,0.031,-0.018,0.044,0.026,0.034,-0.031,-0.042,0.012,-0.031,-0.046,0.035,-0.048,0.039,-0.039,0.052,-0.033,-0.011,-0.041,-0.027,-0.045,-0.036,-0.023,-0.02,0.002,-0.03,0.047,-0.053,-0.037,0.049,0.035,-0.015,0.043,-0.005,-0.026,0.031,-0.049,0.043,-0.052,-0.039,-0.012,-0.053,-0.047,0.041,0.05,-0.002,0.043,0.011,-0.015,-0.034,-0.022,0.02,-0.013,0.02,-0.032,-0.012,0.041,0.029,0.042,-0.044,-0.039,0.048,0.02,-0.02,-0.026,-0.009,0.011,-0.023,0.017,-0.009,0.038,-0.021,-0.025,0.03,-0.036,0.012,0.047,-0.006,0.018,-0.02,-0.048,-0.002,-0.013,-0.004,0.027,0.023,0.035,0.021,0.016,0.035,0.03,0.051,-0.015,0.028,0.018,0.043,0.001,0.006,0.039,-0.014,0.027,-0.011,-0.003,-0.029,-0.037,0.019,-0.016,-0.046,0.047,-0.023,-0.051,0.053,0.003,-0.008,0.02,-0.017,0.026,0.049,0.028,-0.04,-0.045,-0.016,-0.039,0.015,-0.029,0.052,0.012,-0.038,0.037,0.032,0.009,-0.009,-0.04,0.016,-0.024,0.02,-0.047,0.016,0.046,0.028,0.003,0.027,0.049,0.034,-0.012,-0.006,0.038,0.037,-0.007,0.014,-0.046,0.048,-0.051,0.018,-0.041,0.017,0.021,-0.022,-0.018,0.048,-0.012,-0.025,-0.041,0.017,0.017,-0.04,-0.012,-0.042,0.013,0.023,0.012,-0.049,0.05,0.013,0.054,0.022,-0.028,-0.001,0.015,-0.011,0.031,-0.027,-0.044,0.012,0.043,0.028,-0.008,-0.01,0.017,-0.008,0.005,-0.005,-0.048,0.021,0.033,-0.046,0.028,0.018,-0.027,0.006,-0.043,0.037,-0.019,-0.008,-0.034,0.034,0.043,0.04,0.021,-0.053,-0.04,0.048,-0.011,0.041,-0.024,0.007,0.045,-0.007,0.011,0.024,0.0,-0.039,-0.028,-0.038,-0.02,0.029,0.027,-0.024,-0.039,-0.016,-0.012,-0.037,0.033,-0.012,-0.035,-0.031,-0.05,-0.044,0.009,0.052,0.021,-0.054,0.007,0.004,-0.007,-0.003,-0.044,0.026,0.072,0.038,0.01,0.032,-0.036,0.02,0.051,0.021,-0.02,0.003,0.046,0.037,0.045,-0.008,-0.019,-0.003,-0.004,0.13],[0.025,0.033,0.035,-0.025,-0.002,-0.008,-0.014,-0.044,-0.052,0.042,-0.05,-0.005,-0.013,0.024,0.003,0.039,-0.042,0.016,0.029,-0.042,-0.025,-0.052,0.031,-0.05,-0.01,-0.044,0.004,-0.051,0.033,-0.011,-0.031,0.023,0.006,0.026,-0.03,0.011,-0.001,-0.051,-0.02,-0.04,0.049,-0.008,0.006,0.003,-0.025,-0.001,0.029,0.003,0.037,-0.045,-0.031,-0.013,-0.006,-0.043,-0.034,0.027,0.003,0.044,0.03,-0.048,-0.026,-0.039,-0.005,-0.026,-0.04,0.013,-0.039,-0.038,0.025,-0.047,-0.048,-0.002,-0.03,-0.03,0.041,-0.01,0.0,0.022,-0.045,0.028,0.04,0.011,0.032,0.022,-0.039,0.008,0.019,0.018,-0.036,0.051,-0.042,-0.036,-0.027,-0.007,0.049,-0.0,-0.036,-0.009,0.007,0.053,0.04,-0.053,-0.033,0.006,-0.013,0.021,0.026,0.031,0.048,-0.054,0.005,-0.017,-0.007,-0.013,-0.043,-0.025,-0.013,-0.053,0.009,-0.025,-0.05,-0.018,-0.043,-0.01,0.01,0.036,0.019,0.009,0.008,-0.011,0.023,-0.015,0.049,0.048,-0.009,0.012,0.024,-0.052,-0.046,0.006,-0.051,0.033,0.003,-0.01,-0.029,-0.008,-0.026,-0.038,-0.052,-0.031,0.017,-0.017,-0.053,-0.011,-0.003,0.035,-0.045,-0.021,-0.045,-0.014,-0.051,0.046,-0.023,-0.008,0.038,0.033,0.009,-0.03,-0.02,0.012,-0.042,-0.001,0.03,-0.02,-0.027,-0.024,0.049,-0.045,-0.021,0.03,-0.05,-0.042,-0.03,0.041,0.039,-0.036,-0.037,0.028,-0.029,-0.049,-0.008,-0.019,0.019,-0.054,-0.017,-0.039,0.012,-0.01,0.021,0.012,-0.011,-0.023,-0.023,0.052,0.007,0.04,0.009,0.052,-0.003,-0.047,-0.016,-0.015,-0.018,-0.028,0.013,-0.013,0.034,0.034,-0.032,-0.018,-0.021,-0.024,0.035,0.033,0.04,0.036,0.047,0.013,-0.021,0.039,-0.041,0.005,0.005,0.018,0.05,0.019,-0.029,0.022,0.021,0.048,0.05,-0.038,-0.052,-0.029,0.011,-0.008,0.012,0.044,0.023,0.022,0.052,0.006,0.001,0.052,0.052,-0.016,-0.052,0.032,0.01,-0.042,0.022,0.043,0.038,0.011,-0.027,0.044,0.022,-0.046,0.023,0.01,-0.029,0.024,-0.003,0.051,0.015,0.044,0.007,0.051,0.009,0.052,0.003,0.004,0.029,-0.025,-0.004,-0.052,0.016,0.041,0.026,0.014,0.029,-0.015,-0.022,0.028,0.023,-0.04,-0.012,0.025,0.016,0.022,-0.035,0.008,0.009,0.052,0.009,0.046,0.033,-0.016,-0.013,0.009,-0.025,-0.013,-0.015,0.023,0.017,0.008,-0.043,0.033,0.025,0.013,-0.003,0.043,-0.026,-0.046,0.053,0.053,0.07,-0.001,0.039,-0.032,0.004,-0.014,-0.037,0.01,-0.027,0.02,-0.031,0.033,-0.051,-0.016,0.038,0.151],[0.037,0.021,0.028,-0.035,0.046,-0.009,0.045,0.016,0.005,-0.004,0.029,-0.032,0.009,0.002,-0.001,-0.01,-0.0,0.035,0.013,0.04,0.048,0.015,0.046,0.047,-0.052,0.049,0.004,-0.052,-0.02,0.033,-0.02,-0.005,-0.04,-0.02,0.046,-0.019,-0.005,-0.045,-0.016,0.018,0.011,0.045,0.022,-0.006,0.033,0.019,-0.051,-0.029,-0.019,-0.051,-0.049,-0.003,-0.043,-0.048,0.044,-0.038,-0.004,0.029,-0.019,-0.023,-0.027,-0.045,-0.036,0.022,0.039,-0.051,0.015,0.029,0.006,-0.005,-0.04,-0.034,0.038,-0.006,0.053,-0.045,-0.038,0.045,-0.026,-0.026,0.012,0.048,-0.003,0.044,-0.052,-0.017,-0.012,-0.026,-0.05,0.038,-0.004,-0.008,-0.007,-0.008,0.01,0.047,-0.041,-0.011,0.053,-0.005,-0.034,0.04,0.048,0.044,0.052,-0.031,-0.02,-0.036,-0.052,0.033,-0.024,-0.009,-0.001,0.003,0.004,0.036,0.053,0.044,0.025,-0.023,-0.016,0.008,0.005,-0.005,0.0,0.029,-0.016,-0.01,0.011,0.025,-0.054,0.028,-0.011,-0.014,0.025,-0.011,0.01,-0.028,-0.003,0.039,-0.043,-0.001,-0.01,0.004,0.003,-0.036,-0.019,0.016,-0.044,0.01,-0.001,-0.011,0.008,0.039,0.053,-0.018,-0.053,0.035,0.045,-0.017,0.038,-0.045,-0.01,-0.002,-0.041,-0.002,-0.05,0.012,-0.001,0.027,-0.046,0.045,-0.016,0.009,-0.047,0.012,-0.02,-0.034,-0.034,-0.028,-0.036,0.046,0.038,0.03,0.036,-0.049,-0.039,-0.043,-0.005,0.05,0.015,0.011,-0.042,-0.044,0.01,0.036,0.045,0.044,-0.037,0.016,0.014,0.029,0.04,0.015,-0.027,0.018,-0.047,0.051,-0.012,-0.036,0.043,0.005,0.029,-0.033,0.018,0.037,0.003,-0.008,-0.025,0.009,-0.042,-0.024,-0.016,0.018,0.019,-0.008,0.054,0.027,0.024,0.047,0.02,0.008,-0.047,-0.043,0.013,0.017,0.017,-0.014,-0.044,-0.034,0.025,-0.039,-0.045,-0.022,0.012,-0.038,0.046,0.053,-0.016,0.013,0.035,0.048,-0.048,0.026,-0.01,0.014,-0.028,-0.023,-0.016,-0.014,0.05,0.001,-0.029,-0.015,-0.002,-0.001,-0.051,0.006,-0.004,-0.025,-0.018,0.025,-0.008,-0.0,-0.014,-0.051,0.031,0.049,0.021,0.029,0.001,0.019,-0.041,-0.003,-0.034,0.023,-0.006,-0.043,-0.038,-0.037,-0.022,-0.051,-0.029,-0.02,-0.007,0.003,-0.014,-0.048,0.036,0.043,0.033,-0.051,0.028,-0.047,0.011,0.029,-0.041,0.031,-0.008,0.009,0.003,0.033,0.01,0.047,-0.044,0.021,0.006,-0.022,0.053,-0.024,-0.03,-0.004,0.028,-0.003,0.048,0.058,0.009,0.011,-0.03,-0.043,-0.014,0.008,-0.047,-0.03,-0.014,-0.007,0.047,-0.015,0.053,0.052,0.046,0.06],[0.01,0.024,-0.019,0.051,0.004,-0.025,-0.03,-0.029,-0.01,-0.022,-0.032,-0.011,0.02,0.036,-0.044,-0.029,-0.012,-0.033,-0.023,-0.013,-0.003,0.04,-0.025,0.005,0.053,0.027,0.021,0.012,0.051,0.049,-0.022,0.052,0.034,-0.018,0.014,0.009,0.046,0.015,0.048,-0.051,0.021,0.042,0.039,-0.019,-0.053,-0.043,-0.041,-0.01,-0.037,0.047,0.029,-0.004,0.029,-0.028,-0.035,0.011,-0.029,-0.029,0.045,-0.014,-0.027,-0.045,-0.05,-0.046,0.036,-0.019,-0.054,0.002,0.003,0.004,0.044,0.014,0.017,-0.004,0.022,0.02,-0.006,0.047,0.035,0.021,-0.014,-0.024,0.033,-0.007,0.003,0.038,0.008,0.049,-0.016,-0.006,-0.003,-0.051,0.009,0.027,-0.011,-0.051,0.003,0.01,0.035,0.042,0.028,0.024,-0.044,0.046,-0.035,0.0,-0.001,-0.037,-0.026,0.02,-0.005,0.041,-0.005,0.006,0.013,0.032,0.006,0.015,0.049,0.039,0.012,0.043,-0.003,-0.042,-0.036,0.015,0.02,-0.025,-0.054,-0.03,-0.014,-0.037,-0.045,0.021,-0.027,-0.02,-0.027,0.004,-0.011,-0.013,0.046,0.044,0.044,0.023,0.001,0.032,-0.034,0.046,-0.016,-0.053,0.052,-0.037,0.014,0.052,0.045,0.022,-0.011,-0.016,0.027,0.007,-0.044,0.023,0.022,0.036,0.031,-0.048,0.037,-0.005,0.032,0.012,0.051,-0.026,0.007,-0.022,-0.023,0.031,0.044,0.038,-0.014,-0.019,-0.006,0.023,0.053,0.049,0.016,-0.05,0.035,-0.019,-0.019,0.007,-0.041,-0.029,0.049,0.014,-0.045,0.005,-0.009,-0.042,0.049,-0.04,0.039,-0.014,0.021,0.038,0.01,0.034,-0.032,0.052,-0.022,0.037,0.031,-0.054,0.001,-0.013,-0.045,0.019,0.047,-0.049,-0.022,0.019,-0.013,-0.037,0.037,-0.016,0.025,0.039,-0.02,-0.018,0.049,0.048,0.014,-0.023,0.044,-0.001,-0.014,0.049,-0.025,0.053,-0.028,0.048,-0.028,0.025,-0.001,0.025,-0.014,0.004,0.003,0.045,0.037,-0.046,-0.051,-0.036,0.046,0.044,-0.022,0.043,0.037,0.045,-0.03,0.012,0.047,0.029,0.039,-0.04,0.051,0.022,0.041,-0.019,0.016,